tree
version=v2
num_class=1
num_tree_per_iteration=1
label_index=0
max_feature_idx=2325
objective=binary sigmoid:1
feature_names=Column_0 Column_1 Column_2 Column_3 Column_4 Column_5 Column_6 Column_7 Column_8 Column_9 Column_10 Column_11 Column_12 Column_13 Column_14 Column_15 Column_16 Column_17 Column_18 Column_19 Column_20 Column_21 Column_22 Column_23 Column_24 Column_25 Column_26 Column_27 Column_28 Column_29 Column_30 Column_31 Column_32 Column_33 Column_34 Column_35 Column_36 Column_37 Column_38 Column_39 Column_40 Column_41 Column_42 Column_43 Column_44 Column_45 Column_46 Column_47 Column_48 Column_49 Column_50 Column_51 Column_52 Column_53 Column_54 Column_55 Column_56 Column_57 Column_58 Column_59 Column_60 Column_61 Column_62 Column_63 Column_64 Column_65 Column_66 Column_67 Column_68 Column_69 Column_70 Column_71 Column_72 Column_73 Column_74 Column_75 Column_76 Column_77 Column_78 Column_79 Column_80 Column_81 Column_82 Column_83 Column_84 Column_85 Column_86 Column_87 Column_88 Column_89 Column_90 Column_91 Column_92 Column_93 Column_94 Column_95 Column_96 Column_97 Column_98 Column_99 Column_100 Column_101 Column_102 Column_103 Column_104 Column_105 Column_106 Column_107 Column_108 Column_109 Column_110 Column_111 Column_112 Column_113 Column_114 Column_115 Column_116 Column_117 Column_118 Column_119 Column_120 Column_121 Column_122 Column_123 Column_124 Column_125 Column_126 Column_127 Column_128 Column_129 Column_130 Column_131 Column_132 Column_133 Column_134 Column_135 Column_136 Column_137 Column_138 Column_139 Column_140 Column_141 Column_142 Column_143 Column_144 Column_145 Column_146 Column_147 Column_148 Column_149 Column_150 Column_151 Column_152 Column_153 Column_154 Column_155 Column_156 Column_157 Column_158 Column_159 Column_160 Column_161 Column_162 Column_163 Column_164 Column_165 Column_166 Column_167 Column_168 Column_169 Column_170 Column_171 Column_172 Column_173 Column_174 Column_175 Column_176 Column_177 Column_178 Column_179 Column_180 Column_181 Column_182 Column_183 Column_184 Column_185 Column_186 Column_187 Column_188 Column_189 Column_190 Column_191 Column_192 Column_193 Column_194 Column_195 Column_196 Column_197 Column_198 Column_199 Column_200 Column_201 Column_202 Column_203 Column_204 Column_205 Column_206 Column_207 Column_208 Column_209 Column_210 Column_211 Column_212 Column_213 Column_214 Column_215 Column_216 Column_217 Column_218 Column_219 Column_220 Column_221 Column_222 Column_223 Column_224 Column_225 Column_226 Column_227 Column_228 Column_229 Column_230 Column_231 Column_232 Column_233 Column_234 Column_235 Column_236 Column_237 Column_238 Column_239 Column_240 Column_241 Column_242 Column_243 Column_244 Column_245 Column_246 Column_247 Column_248 Column_249 Column_250 Column_251 Column_252 Column_253 Column_254 Column_255 Column_256 Column_257 Column_258 Column_259 Column_260 Column_261 Column_262 Column_263 Column_264 Column_265 Column_266 Column_267 Column_268 Column_269 Column_270 Column_271 Column_272 Column_273 Column_274 Column_275 Column_276 Column_277 Column_278 Column_279 Column_280 Column_281 Column_282 Column_283 Column_284 Column_285 Column_286 Column_287 Column_288 Column_289 Column_290 Column_291 Column_292 Column_293 Column_294 Column_295 Column_296 Column_297 Column_298 Column_299 Column_300 Column_301 Column_302 Column_303 Column_304 Column_305 Column_306 Column_307 Column_308 Column_309 Column_310 Column_311 Column_312 Column_313 Column_314 Column_315 Column_316 Column_317 Column_318 Column_319 Column_320 Column_321 Column_322 Column_323 Column_324 Column_325 Column_326 Column_327 Column_328 Column_329 Column_330 Column_331 Column_332 Column_333 Column_334 Column_335 Column_336 Column_337 Column_338 Column_339 Column_340 Column_341 Column_342 Column_343 Column_344 Column_345 Column_346 Column_347 Column_348 Column_349 Column_350 Column_351 Column_352 Column_353 Column_354 Column_355 Column_356 Column_357 Column_358 Column_359 Column_360 Column_361 Column_362 Column_363 Column_364 Column_365 Column_366 Column_367 Column_368 Column_369 Column_370 Column_371 Column_372 Column_373 Column_374 Column_375 Column_376 Column_377 Column_378 Column_379 Column_380 Column_381 Column_382 Column_383 Column_384 Column_385 Column_386 Column_387 Column_388 Column_389 Column_390 Column_391 Column_392 Column_393 Column_394 Column_395 Column_396 Column_397 Column_398 Column_399 Column_400 Column_401 Column_402 Column_403 Column_404 Column_405 Column_406 Column_407 Column_408 Column_409 Column_410 Column_411 Column_412 Column_413 Column_414 Column_415 Column_416 Column_417 Column_418 Column_419 Column_420 Column_421 Column_422 Column_423 Column_424 Column_425 Column_426 Column_427 Column_428 Column_429 Column_430 Column_431 Column_432 Column_433 Column_434 Column_435 Column_436 Column_437 Column_438 Column_439 Column_440 Column_441 Column_442 Column_443 Column_444 Column_445 Column_446 Column_447 Column_448 Column_449 Column_450 Column_451 Column_452 Column_453 Column_454 Column_455 Column_456 Column_457 Column_458 Column_459 Column_460 Column_461 Column_462 Column_463 Column_464 Column_465 Column_466 Column_467 Column_468 Column_469 Column_470 Column_471 Column_472 Column_473 Column_474 Column_475 Column_476 Column_477 Column_478 Column_479 Column_480 Column_481 Column_482 Column_483 Column_484 Column_485 Column_486 Column_487 Column_488 Column_489 Column_490 Column_491 Column_492 Column_493 Column_494 Column_495 Column_496 Column_497 Column_498 Column_499 Column_500 Column_501 Column_502 Column_503 Column_504 Column_505 Column_506 Column_507 Column_508 Column_509 Column_510 Column_511 Column_512 Column_513 Column_514 Column_515 Column_516 Column_517 Column_518 Column_519 Column_520 Column_521 Column_522 Column_523 Column_524 Column_525 Column_526 Column_527 Column_528 Column_529 Column_530 Column_531 Column_532 Column_533 Column_534 Column_535 Column_536 Column_537 Column_538 Column_539 Column_540 Column_541 Column_542 Column_543 Column_544 Column_545 Column_546 Column_547 Column_548 Column_549 Column_550 Column_551 Column_552 Column_553 Column_554 Column_555 Column_556 Column_557 Column_558 Column_559 Column_560 Column_561 Column_562 Column_563 Column_564 Column_565 Column_566 Column_567 Column_568 Column_569 Column_570 Column_571 Column_572 Column_573 Column_574 Column_575 Column_576 Column_577 Column_578 Column_579 Column_580 Column_581 Column_582 Column_583 Column_584 Column_585 Column_586 Column_587 Column_588 Column_589 Column_590 Column_591 Column_592 Column_593 Column_594 Column_595 Column_596 Column_597 Column_598 Column_599 Column_600 Column_601 Column_602 Column_603 Column_604 Column_605 Column_606 Column_607 Column_608 Column_609 Column_610 Column_611 Column_612 Column_613 Column_614 Column_615 Column_616 Column_617 Column_618 Column_619 Column_620 Column_621 Column_622 Column_623 Column_624 Column_625 Column_626 Column_627 Column_628 Column_629 Column_630 Column_631 Column_632 Column_633 Column_634 Column_635 Column_636 Column_637 Column_638 Column_639 Column_640 Column_641 Column_642 Column_643 Column_644 Column_645 Column_646 Column_647 Column_648 Column_649 Column_650 Column_651 Column_652 Column_653 Column_654 Column_655 Column_656 Column_657 Column_658 Column_659 Column_660 Column_661 Column_662 Column_663 Column_664 Column_665 Column_666 Column_667 Column_668 Column_669 Column_670 Column_671 Column_672 Column_673 Column_674 Column_675 Column_676 Column_677 Column_678 Column_679 Column_680 Column_681 Column_682 Column_683 Column_684 Column_685 Column_686 Column_687 Column_688 Column_689 Column_690 Column_691 Column_692 Column_693 Column_694 Column_695 Column_696 Column_697 Column_698 Column_699 Column_700 Column_701 Column_702 Column_703 Column_704 Column_705 Column_706 Column_707 Column_708 Column_709 Column_710 Column_711 Column_712 Column_713 Column_714 Column_715 Column_716 Column_717 Column_718 Column_719 Column_720 Column_721 Column_722 Column_723 Column_724 Column_725 Column_726 Column_727 Column_728 Column_729 Column_730 Column_731 Column_732 Column_733 Column_734 Column_735 Column_736 Column_737 Column_738 Column_739 Column_740 Column_741 Column_742 Column_743 Column_744 Column_745 Column_746 Column_747 Column_748 Column_749 Column_750 Column_751 Column_752 Column_753 Column_754 Column_755 Column_756 Column_757 Column_758 Column_759 Column_760 Column_761 Column_762 Column_763 Column_764 Column_765 Column_766 Column_767 Column_768 Column_769 Column_770 Column_771 Column_772 Column_773 Column_774 Column_775 Column_776 Column_777 Column_778 Column_779 Column_780 Column_781 Column_782 Column_783 Column_784 Column_785 Column_786 Column_787 Column_788 Column_789 Column_790 Column_791 Column_792 Column_793 Column_794 Column_795 Column_796 Column_797 Column_798 Column_799 Column_800 Column_801 Column_802 Column_803 Column_804 Column_805 Column_806 Column_807 Column_808 Column_809 Column_810 Column_811 Column_812 Column_813 Column_814 Column_815 Column_816 Column_817 Column_818 Column_819 Column_820 Column_821 Column_822 Column_823 Column_824 Column_825 Column_826 Column_827 Column_828 Column_829 Column_830 Column_831 Column_832 Column_833 Column_834 Column_835 Column_836 Column_837 Column_838 Column_839 Column_840 Column_841 Column_842 Column_843 Column_844 Column_845 Column_846 Column_847 Column_848 Column_849 Column_850 Column_851 Column_852 Column_853 Column_854 Column_855 Column_856 Column_857 Column_858 Column_859 Column_860 Column_861 Column_862 Column_863 Column_864 Column_865 Column_866 Column_867 Column_868 Column_869 Column_870 Column_871 Column_872 Column_873 Column_874 Column_875 Column_876 Column_877 Column_878 Column_879 Column_880 Column_881 Column_882 Column_883 Column_884 Column_885 Column_886 Column_887 Column_888 Column_889 Column_890 Column_891 Column_892 Column_893 Column_894 Column_895 Column_896 Column_897 Column_898 Column_899 Column_900 Column_901 Column_902 Column_903 Column_904 Column_905 Column_906 Column_907 Column_908 Column_909 Column_910 Column_911 Column_912 Column_913 Column_914 Column_915 Column_916 Column_917 Column_918 Column_919 Column_920 Column_921 Column_922 Column_923 Column_924 Column_925 Column_926 Column_927 Column_928 Column_929 Column_930 Column_931 Column_932 Column_933 Column_934 Column_935 Column_936 Column_937 Column_938 Column_939 Column_940 Column_941 Column_942 Column_943 Column_944 Column_945 Column_946 Column_947 Column_948 Column_949 Column_950 Column_951 Column_952 Column_953 Column_954 Column_955 Column_956 Column_957 Column_958 Column_959 Column_960 Column_961 Column_962 Column_963 Column_964 Column_965 Column_966 Column_967 Column_968 Column_969 Column_970 Column_971 Column_972 Column_973 Column_974 Column_975 Column_976 Column_977 Column_978 Column_979 Column_980 Column_981 Column_982 Column_983 Column_984 Column_985 Column_986 Column_987 Column_988 Column_989 Column_990 Column_991 Column_992 Column_993 Column_994 Column_995 Column_996 Column_997 Column_998 Column_999 Column_1000 Column_1001 Column_1002 Column_1003 Column_1004 Column_1005 Column_1006 Column_1007 Column_1008 Column_1009 Column_1010 Column_1011 Column_1012 Column_1013 Column_1014 Column_1015 Column_1016 Column_1017 Column_1018 Column_1019 Column_1020 Column_1021 Column_1022 Column_1023 Column_1024 Column_1025 Column_1026 Column_1027 Column_1028 Column_1029 Column_1030 Column_1031 Column_1032 Column_1033 Column_1034 Column_1035 Column_1036 Column_1037 Column_1038 Column_1039 Column_1040 Column_1041 Column_1042 Column_1043 Column_1044 Column_1045 Column_1046 Column_1047 Column_1048 Column_1049 Column_1050 Column_1051 Column_1052 Column_1053 Column_1054 Column_1055 Column_1056 Column_1057 Column_1058 Column_1059 Column_1060 Column_1061 Column_1062 Column_1063 Column_1064 Column_1065 Column_1066 Column_1067 Column_1068 Column_1069 Column_1070 Column_1071 Column_1072 Column_1073 Column_1074 Column_1075 Column_1076 Column_1077 Column_1078 Column_1079 Column_1080 Column_1081 Column_1082 Column_1083 Column_1084 Column_1085 Column_1086 Column_1087 Column_1088 Column_1089 Column_1090 Column_1091 Column_1092 Column_1093 Column_1094 Column_1095 Column_1096 Column_1097 Column_1098 Column_1099 Column_1100 Column_1101 Column_1102 Column_1103 Column_1104 Column_1105 Column_1106 Column_1107 Column_1108 Column_1109 Column_1110 Column_1111 Column_1112 Column_1113 Column_1114 Column_1115 Column_1116 Column_1117 Column_1118 Column_1119 Column_1120 Column_1121 Column_1122 Column_1123 Column_1124 Column_1125 Column_1126 Column_1127 Column_1128 Column_1129 Column_1130 Column_1131 Column_1132 Column_1133 Column_1134 Column_1135 Column_1136 Column_1137 Column_1138 Column_1139 Column_1140 Column_1141 Column_1142 Column_1143 Column_1144 Column_1145 Column_1146 Column_1147 Column_1148 Column_1149 Column_1150 Column_1151 Column_1152 Column_1153 Column_1154 Column_1155 Column_1156 Column_1157 Column_1158 Column_1159 Column_1160 Column_1161 Column_1162 Column_1163 Column_1164 Column_1165 Column_1166 Column_1167 Column_1168 Column_1169 Column_1170 Column_1171 Column_1172 Column_1173 Column_1174 Column_1175 Column_1176 Column_1177 Column_1178 Column_1179 Column_1180 Column_1181 Column_1182 Column_1183 Column_1184 Column_1185 Column_1186 Column_1187 Column_1188 Column_1189 Column_1190 Column_1191 Column_1192 Column_1193 Column_1194 Column_1195 Column_1196 Column_1197 Column_1198 Column_1199 Column_1200 Column_1201 Column_1202 Column_1203 Column_1204 Column_1205 Column_1206 Column_1207 Column_1208 Column_1209 Column_1210 Column_1211 Column_1212 Column_1213 Column_1214 Column_1215 Column_1216 Column_1217 Column_1218 Column_1219 Column_1220 Column_1221 Column_1222 Column_1223 Column_1224 Column_1225 Column_1226 Column_1227 Column_1228 Column_1229 Column_1230 Column_1231 Column_1232 Column_1233 Column_1234 Column_1235 Column_1236 Column_1237 Column_1238 Column_1239 Column_1240 Column_1241 Column_1242 Column_1243 Column_1244 Column_1245 Column_1246 Column_1247 Column_1248 Column_1249 Column_1250 Column_1251 Column_1252 Column_1253 Column_1254 Column_1255 Column_1256 Column_1257 Column_1258 Column_1259 Column_1260 Column_1261 Column_1262 Column_1263 Column_1264 Column_1265 Column_1266 Column_1267 Column_1268 Column_1269 Column_1270 Column_1271 Column_1272 Column_1273 Column_1274 Column_1275 Column_1276 Column_1277 Column_1278 Column_1279 Column_1280 Column_1281 Column_1282 Column_1283 Column_1284 Column_1285 Column_1286 Column_1287 Column_1288 Column_1289 Column_1290 Column_1291 Column_1292 Column_1293 Column_1294 Column_1295 Column_1296 Column_1297 Column_1298 Column_1299 Column_1300 Column_1301 Column_1302 Column_1303 Column_1304 Column_1305 Column_1306 Column_1307 Column_1308 Column_1309 Column_1310 Column_1311 Column_1312 Column_1313 Column_1314 Column_1315 Column_1316 Column_1317 Column_1318 Column_1319 Column_1320 Column_1321 Column_1322 Column_1323 Column_1324 Column_1325 Column_1326 Column_1327 Column_1328 Column_1329 Column_1330 Column_1331 Column_1332 Column_1333 Column_1334 Column_1335 Column_1336 Column_1337 Column_1338 Column_1339 Column_1340 Column_1341 Column_1342 Column_1343 Column_1344 Column_1345 Column_1346 Column_1347 Column_1348 Column_1349 Column_1350 Column_1351 Column_1352 Column_1353 Column_1354 Column_1355 Column_1356 Column_1357 Column_1358 Column_1359 Column_1360 Column_1361 Column_1362 Column_1363 Column_1364 Column_1365 Column_1366 Column_1367 Column_1368 Column_1369 Column_1370 Column_1371 Column_1372 Column_1373 Column_1374 Column_1375 Column_1376 Column_1377 Column_1378 Column_1379 Column_1380 Column_1381 Column_1382 Column_1383 Column_1384 Column_1385 Column_1386 Column_1387 Column_1388 Column_1389 Column_1390 Column_1391 Column_1392 Column_1393 Column_1394 Column_1395 Column_1396 Column_1397 Column_1398 Column_1399 Column_1400 Column_1401 Column_1402 Column_1403 Column_1404 Column_1405 Column_1406 Column_1407 Column_1408 Column_1409 Column_1410 Column_1411 Column_1412 Column_1413 Column_1414 Column_1415 Column_1416 Column_1417 Column_1418 Column_1419 Column_1420 Column_1421 Column_1422 Column_1423 Column_1424 Column_1425 Column_1426 Column_1427 Column_1428 Column_1429 Column_1430 Column_1431 Column_1432 Column_1433 Column_1434 Column_1435 Column_1436 Column_1437 Column_1438 Column_1439 Column_1440 Column_1441 Column_1442 Column_1443 Column_1444 Column_1445 Column_1446 Column_1447 Column_1448 Column_1449 Column_1450 Column_1451 Column_1452 Column_1453 Column_1454 Column_1455 Column_1456 Column_1457 Column_1458 Column_1459 Column_1460 Column_1461 Column_1462 Column_1463 Column_1464 Column_1465 Column_1466 Column_1467 Column_1468 Column_1469 Column_1470 Column_1471 Column_1472 Column_1473 Column_1474 Column_1475 Column_1476 Column_1477 Column_1478 Column_1479 Column_1480 Column_1481 Column_1482 Column_1483 Column_1484 Column_1485 Column_1486 Column_1487 Column_1488 Column_1489 Column_1490 Column_1491 Column_1492 Column_1493 Column_1494 Column_1495 Column_1496 Column_1497 Column_1498 Column_1499 Column_1500 Column_1501 Column_1502 Column_1503 Column_1504 Column_1505 Column_1506 Column_1507 Column_1508 Column_1509 Column_1510 Column_1511 Column_1512 Column_1513 Column_1514 Column_1515 Column_1516 Column_1517 Column_1518 Column_1519 Column_1520 Column_1521 Column_1522 Column_1523 Column_1524 Column_1525 Column_1526 Column_1527 Column_1528 Column_1529 Column_1530 Column_1531 Column_1532 Column_1533 Column_1534 Column_1535 Column_1536 Column_1537 Column_1538 Column_1539 Column_1540 Column_1541 Column_1542 Column_1543 Column_1544 Column_1545 Column_1546 Column_1547 Column_1548 Column_1549 Column_1550 Column_1551 Column_1552 Column_1553 Column_1554 Column_1555 Column_1556 Column_1557 Column_1558 Column_1559 Column_1560 Column_1561 Column_1562 Column_1563 Column_1564 Column_1565 Column_1566 Column_1567 Column_1568 Column_1569 Column_1570 Column_1571 Column_1572 Column_1573 Column_1574 Column_1575 Column_1576 Column_1577 Column_1578 Column_1579 Column_1580 Column_1581 Column_1582 Column_1583 Column_1584 Column_1585 Column_1586 Column_1587 Column_1588 Column_1589 Column_1590 Column_1591 Column_1592 Column_1593 Column_1594 Column_1595 Column_1596 Column_1597 Column_1598 Column_1599 Column_1600 Column_1601 Column_1602 Column_1603 Column_1604 Column_1605 Column_1606 Column_1607 Column_1608 Column_1609 Column_1610 Column_1611 Column_1612 Column_1613 Column_1614 Column_1615 Column_1616 Column_1617 Column_1618 Column_1619 Column_1620 Column_1621 Column_1622 Column_1623 Column_1624 Column_1625 Column_1626 Column_1627 Column_1628 Column_1629 Column_1630 Column_1631 Column_1632 Column_1633 Column_1634 Column_1635 Column_1636 Column_1637 Column_1638 Column_1639 Column_1640 Column_1641 Column_1642 Column_1643 Column_1644 Column_1645 Column_1646 Column_1647 Column_1648 Column_1649 Column_1650 Column_1651 Column_1652 Column_1653 Column_1654 Column_1655 Column_1656 Column_1657 Column_1658 Column_1659 Column_1660 Column_1661 Column_1662 Column_1663 Column_1664 Column_1665 Column_1666 Column_1667 Column_1668 Column_1669 Column_1670 Column_1671 Column_1672 Column_1673 Column_1674 Column_1675 Column_1676 Column_1677 Column_1678 Column_1679 Column_1680 Column_1681 Column_1682 Column_1683 Column_1684 Column_1685 Column_1686 Column_1687 Column_1688 Column_1689 Column_1690 Column_1691 Column_1692 Column_1693 Column_1694 Column_1695 Column_1696 Column_1697 Column_1698 Column_1699 Column_1700 Column_1701 Column_1702 Column_1703 Column_1704 Column_1705 Column_1706 Column_1707 Column_1708 Column_1709 Column_1710 Column_1711 Column_1712 Column_1713 Column_1714 Column_1715 Column_1716 Column_1717 Column_1718 Column_1719 Column_1720 Column_1721 Column_1722 Column_1723 Column_1724 Column_1725 Column_1726 Column_1727 Column_1728 Column_1729 Column_1730 Column_1731 Column_1732 Column_1733 Column_1734 Column_1735 Column_1736 Column_1737 Column_1738 Column_1739 Column_1740 Column_1741 Column_1742 Column_1743 Column_1744 Column_1745 Column_1746 Column_1747 Column_1748 Column_1749 Column_1750 Column_1751 Column_1752 Column_1753 Column_1754 Column_1755 Column_1756 Column_1757 Column_1758 Column_1759 Column_1760 Column_1761 Column_1762 Column_1763 Column_1764 Column_1765 Column_1766 Column_1767 Column_1768 Column_1769 Column_1770 Column_1771 Column_1772 Column_1773 Column_1774 Column_1775 Column_1776 Column_1777 Column_1778 Column_1779 Column_1780 Column_1781 Column_1782 Column_1783 Column_1784 Column_1785 Column_1786 Column_1787 Column_1788 Column_1789 Column_1790 Column_1791 Column_1792 Column_1793 Column_1794 Column_1795 Column_1796 Column_1797 Column_1798 Column_1799 Column_1800 Column_1801 Column_1802 Column_1803 Column_1804 Column_1805 Column_1806 Column_1807 Column_1808 Column_1809 Column_1810 Column_1811 Column_1812 Column_1813 Column_1814 Column_1815 Column_1816 Column_1817 Column_1818 Column_1819 Column_1820 Column_1821 Column_1822 Column_1823 Column_1824 Column_1825 Column_1826 Column_1827 Column_1828 Column_1829 Column_1830 Column_1831 Column_1832 Column_1833 Column_1834 Column_1835 Column_1836 Column_1837 Column_1838 Column_1839 Column_1840 Column_1841 Column_1842 Column_1843 Column_1844 Column_1845 Column_1846 Column_1847 Column_1848 Column_1849 Column_1850 Column_1851 Column_1852 Column_1853 Column_1854 Column_1855 Column_1856 Column_1857 Column_1858 Column_1859 Column_1860 Column_1861 Column_1862 Column_1863 Column_1864 Column_1865 Column_1866 Column_1867 Column_1868 Column_1869 Column_1870 Column_1871 Column_1872 Column_1873 Column_1874 Column_1875 Column_1876 Column_1877 Column_1878 Column_1879 Column_1880 Column_1881 Column_1882 Column_1883 Column_1884 Column_1885 Column_1886 Column_1887 Column_1888 Column_1889 Column_1890 Column_1891 Column_1892 Column_1893 Column_1894 Column_1895 Column_1896 Column_1897 Column_1898 Column_1899 Column_1900 Column_1901 Column_1902 Column_1903 Column_1904 Column_1905 Column_1906 Column_1907 Column_1908 Column_1909 Column_1910 Column_1911 Column_1912 Column_1913 Column_1914 Column_1915 Column_1916 Column_1917 Column_1918 Column_1919 Column_1920 Column_1921 Column_1922 Column_1923 Column_1924 Column_1925 Column_1926 Column_1927 Column_1928 Column_1929 Column_1930 Column_1931 Column_1932 Column_1933 Column_1934 Column_1935 Column_1936 Column_1937 Column_1938 Column_1939 Column_1940 Column_1941 Column_1942 Column_1943 Column_1944 Column_1945 Column_1946 Column_1947 Column_1948 Column_1949 Column_1950 Column_1951 Column_1952 Column_1953 Column_1954 Column_1955 Column_1956 Column_1957 Column_1958 Column_1959 Column_1960 Column_1961 Column_1962 Column_1963 Column_1964 Column_1965 Column_1966 Column_1967 Column_1968 Column_1969 Column_1970 Column_1971 Column_1972 Column_1973 Column_1974 Column_1975 Column_1976 Column_1977 Column_1978 Column_1979 Column_1980 Column_1981 Column_1982 Column_1983 Column_1984 Column_1985 Column_1986 Column_1987 Column_1988 Column_1989 Column_1990 Column_1991 Column_1992 Column_1993 Column_1994 Column_1995 Column_1996 Column_1997 Column_1998 Column_1999 Column_2000 Column_2001 Column_2002 Column_2003 Column_2004 Column_2005 Column_2006 Column_2007 Column_2008 Column_2009 Column_2010 Column_2011 Column_2012 Column_2013 Column_2014 Column_2015 Column_2016 Column_2017 Column_2018 Column_2019 Column_2020 Column_2021 Column_2022 Column_2023 Column_2024 Column_2025 Column_2026 Column_2027 Column_2028 Column_2029 Column_2030 Column_2031 Column_2032 Column_2033 Column_2034 Column_2035 Column_2036 Column_2037 Column_2038 Column_2039 Column_2040 Column_2041 Column_2042 Column_2043 Column_2044 Column_2045 Column_2046 Column_2047 Column_2048 Column_2049 Column_2050 Column_2051 Column_2052 Column_2053 Column_2054 Column_2055 Column_2056 Column_2057 Column_2058 Column_2059 Column_2060 Column_2061 Column_2062 Column_2063 Column_2064 Column_2065 Column_2066 Column_2067 Column_2068 Column_2069 Column_2070 Column_2071 Column_2072 Column_2073 Column_2074 Column_2075 Column_2076 Column_2077 Column_2078 Column_2079 Column_2080 Column_2081 Column_2082 Column_2083 Column_2084 Column_2085 Column_2086 Column_2087 Column_2088 Column_2089 Column_2090 Column_2091 Column_2092 Column_2093 Column_2094 Column_2095 Column_2096 Column_2097 Column_2098 Column_2099 Column_2100 Column_2101 Column_2102 Column_2103 Column_2104 Column_2105 Column_2106 Column_2107 Column_2108 Column_2109 Column_2110 Column_2111 Column_2112 Column_2113 Column_2114 Column_2115 Column_2116 Column_2117 Column_2118 Column_2119 Column_2120 Column_2121 Column_2122 Column_2123 Column_2124 Column_2125 Column_2126 Column_2127 Column_2128 Column_2129 Column_2130 Column_2131 Column_2132 Column_2133 Column_2134 Column_2135 Column_2136 Column_2137 Column_2138 Column_2139 Column_2140 Column_2141 Column_2142 Column_2143 Column_2144 Column_2145 Column_2146 Column_2147 Column_2148 Column_2149 Column_2150 Column_2151 Column_2152 Column_2153 Column_2154 Column_2155 Column_2156 Column_2157 Column_2158 Column_2159 Column_2160 Column_2161 Column_2162 Column_2163 Column_2164 Column_2165 Column_2166 Column_2167 Column_2168 Column_2169 Column_2170 Column_2171 Column_2172 Column_2173 Column_2174 Column_2175 Column_2176 Column_2177 Column_2178 Column_2179 Column_2180 Column_2181 Column_2182 Column_2183 Column_2184 Column_2185 Column_2186 Column_2187 Column_2188 Column_2189 Column_2190 Column_2191 Column_2192 Column_2193 Column_2194 Column_2195 Column_2196 Column_2197 Column_2198 Column_2199 Column_2200 Column_2201 Column_2202 Column_2203 Column_2204 Column_2205 Column_2206 Column_2207 Column_2208 Column_2209 Column_2210 Column_2211 Column_2212 Column_2213 Column_2214 Column_2215 Column_2216 Column_2217 Column_2218 Column_2219 Column_2220 Column_2221 Column_2222 Column_2223 Column_2224 Column_2225 Column_2226 Column_2227 Column_2228 Column_2229 Column_2230 Column_2231 Column_2232 Column_2233 Column_2234 Column_2235 Column_2236 Column_2237 Column_2238 Column_2239 Column_2240 Column_2241 Column_2242 Column_2243 Column_2244 Column_2245 Column_2246 Column_2247 Column_2248 Column_2249 Column_2250 Column_2251 Column_2252 Column_2253 Column_2254 Column_2255 Column_2256 Column_2257 Column_2258 Column_2259 Column_2260 Column_2261 Column_2262 Column_2263 Column_2264 Column_2265 Column_2266 Column_2267 Column_2268 Column_2269 Column_2270 Column_2271 Column_2272 Column_2273 Column_2274 Column_2275 Column_2276 Column_2277 Column_2278 Column_2279 Column_2280 Column_2281 Column_2282 Column_2283 Column_2284 Column_2285 Column_2286 Column_2287 Column_2288 Column_2289 Column_2290 Column_2291 Column_2292 Column_2293 Column_2294 Column_2295 Column_2296 Column_2297 Column_2298 Column_2299 Column_2300 Column_2301 Column_2302 Column_2303 Column_2304 Column_2305 Column_2306 Column_2307 Column_2308 Column_2309 Column_2310 Column_2311 Column_2312 Column_2313 Column_2314 Column_2315 Column_2316 Column_2317 Column_2318 Column_2319 Column_2320 Column_2321 Column_2322 Column_2323 Column_2324 Column_2325
feature_infos=[0.00074247008888050914:0.99937635660171509] [1.1365505997673608e-05:0.26306420564651489] [5.9298295127518941e-06:0.099643401801586151] [0:0.26257017254829407] [1.0377201761002652e-05:0.29259213805198669] [1.4824573781879735e-06:0.16911010444164276] [1.9766098375839647e-06:0.28475534915924072] [0:0.19640734791755676] [0:0.21756431460380554] [1.4824573781879735e-06:0.28460457921028137] [9.8830491879198235e-07:0.095252193510532379] [4.9415245939599117e-07:0.086192816495895386] [0:0.096364423632621765] [9.8830491879198235e-07:0.058991149067878723] [9.8830491879198235e-07:0.26296007633209229] [0:0.13384495675563812] [1.0377201761002652e-05:0.093384310603141785] [0:0.093498855829238892] [0:0.19019299745559692] [0:0.15034766495227814] [0:0.086718976497650146] [0:0.078972764313220978] [0:0.09655597060918808] [0:0.075106792151927948] [0:0.061920695006847382] [0:0.087197251617908478] [0:0.034323453903198242] [0:0.15249510109424591] [0:0.098329812288284302] [0:0.04501723125576973] [0:0.041011810302734375] [4.9415245939599117e-07:0.1380450576543808] [2.0841996956733055e-05:0.25266656279563904] [2.9961395284772152e-06:0.061670981347560883] [0:0.08550647646188736] [0:0.12853802740573883] [2.0401666915859096e-06:0.085634075105190277] [0:0.12086619436740875] [0:0.050963278859853745] [0:0.11063743382692337] [0:0.082499787211418152] [0:0.082700416445732117] [0:0.037124104797840118] [0:0.069308750331401825] [0:0.082498230040073395] [0:0.058855075389146805] [3.4954960028699134e-06:0.04067620262503624] [0:0.28029799461364746] [0:0.45776927471160889] [0:0.062761135399341583] [0:0.1439318060874939] [4.4473722482507583e-06:0.18295809626579285] [0:0.33192715048789978] [0:0.19207631051540375] [0:0.19203542172908783] [0:0.07671675831079483] [0:0.19439564645290375] [0:0.084616631269454956] [0:0.13059601187705994] [0:0.074967451393604279] [0:0.055420786142349243] [0:0.066096477210521698] [0:0.109048031270504] [0:0.076411671936511993] [5.4613624342891853e-06:0.15641364455223083] [0:0.15237146615982056] [0:0.11250500380992889] [0:0.054388102144002914] [7.4903487075062003e-06:0.14503088593482971] [3.4590671020851005e-06:0.079313196241855621] [0:0.062798812985420227] [0:0.077244766056537628] [0:0.075982891023159027] [0:0.13423985242843628] [0:0.18853403627872467] [0:0.048197966068983078] [6.4239816310873721e-06:0.046764716506004333] [4.9415245939599117e-07:0.028311684727668762] [0:0.037256665527820587] [0:0.075958855450153351] [1.0377201761002652e-05:0.060004279017448425] [0:0.066796056926250458] [4.4473722482507583e-06:0.13139557838439941] [6.918134204170201e-06:0.0642552450299263] [3.4590671020851005e-06:0.053705174475908279] [0:0.040538333356380463] [0:0.071373775601387024] [0:0.33193138241767883] [0:0.064845576882362366] [0:0.057380847632884979] [4.9415245939599117e-07:0.066893137991428375] [0:0.18849712610244751] [0:0.13116097450256348] [0:0.0347282774746418] [0:0.08704308420419693] [0:0.04656282439827919] [0:0.12417413294315338] [9.8830487331724726e-06:0.91130697727203369] [0:0.0648980513215065] [5.9298295127518941e-06:0.068633653223514557] [4.9415243665862363e-06:0.075895033776760101] [1.7295335055678152e-05:0.088603287935256958] [0:0.068805769085884094] [1.4824573781879735e-06:0.060231801122426987] [6.5731956055969931e-06:0.094635009765625] [3.4590671020851005e-06:0.12243916094303131] [0:0.087121620774269104] [0:0.10345723479986191] [1.3809846677759197e-05:0.1188470721244812] [1.9766098375839647e-06:0.076071321964263916] [9.3888966148369946e-06:0.33193129301071167] [7.4122867772530299e-06:0.073026262223720551] [3.9532196751679294e-06:0.092170365154743195] [0:0.076905004680156708] [1.087135387933813e-05:0.061585817486047745] [6.4239816310873721e-06:0.077086113393306732] [1.2847963262174744e-05:0.063029825687408447] [7.9064393503358588e-06:0.074840143322944641] [0:0.14375598728656769] [0:0.046883434057235718] [0:0.10496325790882111] [0:0.10924400389194489] [0:0.060806062072515488] [0:0.14926686882972717] [0:0.057402148842811584] [0:0.19645735621452332] [0:0.027026085183024406] [0:0.044636890292167664] [0:0.25041231513023376] [0:0.055336695164442062] [0:0.040035940706729889] [0:0.094045199453830719] [0:0.033816725015640259] [0:0.064512588083744049] [0:0.068312734365463257] [0:0.029627971351146698] [0:0.11378476023674011] [0:0.07637854665517807] [0:0.060420360416173935] [0:0.075579628348350525] [0:0.04869481548666954] [0:0.1878313273191452] [0:0.090610429644584656] [0:0.034068934619426727] [0:0.096182733774185181] [0:0.084849238395690918] [0:0.085141189396381378] [0:0.0748429074883461] [0:0.070691108703613281] [0:0.15549290180206299] [0:0.19758352637290955] [0:0.035334423184394836] [0:0.045220326632261276] [0:0.070598624646663666] [0:0.057896625250577927] [0:0.094005338847637177] [0:0.088125124573707581] [0:0.028313949704170227] [0:0.074755124747753143] [0:0.025129245594143867] [0:0.061515703797340393] [0:0.040847592055797577] [0:0.070685520768165588] [0:0.081791557371616364] [0:0.070687383413314819] [0:0.027599435299634933] [0:0.046553246676921844] [0:0.035753969103097916] [0:0.10540129989385605] [0:0.029188908636569977] [0:0.038243021816015244] [0:0.029088810086250305] [0:0.1117212176322937] [0:0.12538683414459229] [0:0.076083950698375702] [0:0.025538913905620575] [0:0.032907083630561829] [0:0.051661837846040726] [0:0.037319015711545944] [0:0.095764279365539551] [9.8830491879198235e-07:0.034985553473234177] [0:0.19332009553909302] [0:0.10540621727705002] [0:0.090772666037082672] [0:0.13012956082820892] [0:0.057977017015218735] [0:0.1294844001531601] [0:0.028635092079639435] [0:0.072457857429981232] [0:0.031957224011421204] [0:0.037615776062011719] [0:0.14999887347221375] [0:0.24328653514385223] [0:0.040215574204921722] [0:0.085115209221839905] [0:0.08423103392124176] [0:0.042610548436641693] [0:0.14273299276828766] [0:0.042002931237220764] [0:0.039091922342777252] [0:0.031222958117723465] [0:0.19610144197940826] [0:0.024429796263575554] [0:0.037238087505102158] [0:0.41558670997619629] [0:0.052318032830953598] [0:0.18071168661117554] [0:0.060641918331384659] [0:0.1240132749080658] [0:0.017714537680149078] [0:0.037334505468606949] [0:0.18025438487529755] [0:0.04870619997382164] [0:0.02662346325814724] [0:0.1806224137544632] [0:0.043826617300510406] [0:0.036178275942802429] [0:0.07752053439617157] [0:0.025671049952507019] [0:0.081087075173854828] [0:0.03686392679810524] [0:0.033394087105989456] [0:0.0312369205057621] [0:0.034762565046548843] [9.8830491879198235e-07:0.053621780127286911] [0:0.1222192794084549] [0:0.14654625952243805] [0:0.069331094622612] [0:0.1994888037443161] [0:0.093995377421379089] [0:0.032806411385536194] [0:0.086615115404129028] [0:0.24299159646034241] [0:0.13255639374256134] [0:0.053050920367240906] [0:0.036512807011604309] [0:0.093935586512088776] [0:0.057212896645069122] [0:0.096511825919151306] [0:0.12487001717090607] [0:0.25083428621292114] [0:0.17484390735626221] [0:0.19929948449134827] [0:0.045487925410270691] [0:0.14146570861339569] [0:0.11992467939853668] [0:0.18518142402172089] [0:0.10027319937944412] [0:0.10629190504550934] [0:0.12004796415567398] [0:0.1251995712518692] [0:0.30844947695732117] [0:0.094521187245845795] [0:0.076727427542209625] [0:0.57903671264648438] [2.0401666915859096e-06:0.65098714828491211] [0:0.99847406148910522] [0:0.11390788853168488] [0:0.098496772348880768] [0:0.60751235485076904] [0:0.039375845342874527] [0:0.038869570940732956] [0:0.91023772954940796] [0:0.071692705154418945] [0:0.022985870018601418] [0:0.184523805975914] [0:0.10329670459032059] [0:0.12578617036342621] [0:0.2380952388048172] [0:0.035313494503498077] [0:0.23523296415805817] [0:0.56119400262832642] [0:0.81261444091796875] [0:0.0098406160250306129] [0:0.0056463703513145447] [0:0.11344240605831146] [0:0.022639768198132515] [0:0.0053084935061633587] [0:0.021732009947299957] [0:0.019365234300494194] [0:0.0064741657115519047] [0:0.03025054931640625] [0:0.035662021487951279] [0:0.014212627895176411] [0:0.031436566263437271] [0:0.062189541757106781] [0:0.047229185700416565] [0:0.13892415165901184] [0:0.91943359375] [0:0.01416015625] [0:0.018482156097888947] [0:0.14428108930587769] [0:0.11583533883094788] [0:0.010017994791269302] [0:0.02099609375] [0:0.0096798697486519814] [0:0.0039944937452673912] [0:0.04278564453125] [0:0.005981809925287962] [0:0.005859375] [0:0.038457959890365601] [0:0.019867945462465286] [0:0.010683358646929264] [0:0.11404747515916824] [0:0.36732017993927002] [0:0.36740651726722717] [0:0.15708164870738983] [0:0.54046905040740967] [0:0.32369959354400635] [0:0.12064302712678909] [0:0.1785883754491806] [0:0.12910392880439758] [0:0.066436253488063812] [0:0.0089647555723786354] [0:0.01195741631090641] [0:0.13357073068618774] [0:0.090499803423881531] [0:0.18099094927310944] [0:0.010159779340028763] [0:0.39784836769104004] [0:0.8165048360824585] [0:0.031975239515304565] [0:0.036858052015304565] [0:0.40172284841537476] [0:0.050731170922517776] [0:0.03108724020421505] [0:0.09313906729221344] [0:0.11105281859636307] [0:0.052518878132104874] [0:0.017235523089766502] [0:0.017057778313755989] [0:0.099527254700660706] [0:0.0973772332072258] [0:0.053111869841814041] [0:0.022343279793858528] [0:0.14595852792263031] [0:0.45391064882278442] [0:0.024924794211983681] [0:0.02639973908662796] [0:0.37817046046257019] [0:0.12659651041030884] [0:0.057359363883733749] [0:0.11475151777267456] [0:0.17207808792591095] [0:0.025732925161719322] [0:0.013600600883364677] [0:0.028368683531880379] [0:0.039174582809209824] [0:0.033256664872169495] [0:0.042875465005636215] [0:0.02797267772257328] [0:0.20683488249778748] [0:0.74951171875] [0:0.046239528805017471] [0:0.11851639300584793] [0:0.33192327618598938] [0:0.14215181767940521] [0:0.33192020654678345] [0:0.33192017674446106] [0:0.10097894072532654] [0:0.12331584095954895] [0:0.025209438055753708] [0:0.066952459514141083] [0:0.052466928958892822] [0:0.27837085723876953] [0:0.056863188743591309] [0:0.09573209285736084] [0:0.27893519401550293] [0:0.74169921875] [0:0.12161383032798767] [0:0.24655966460704803] [0:0.1375325471162796] [0:0.17798393964767456] [0:0.067297086119651794] [0:0.25238856673240662] [0:0.1107700914144516] [0:0.085472956299781799] [0:0.02254299633204937] [0:0.046305339783430099] [0:0.068910039961338043] [0:0.034336842596530914] [0:0.0401785708963871] [0:0.20645031332969666] [0:0.20262670516967773] [0:0.59581494331359863] [0:0.080283179879188538] [0:0.14633749425411224] [0:0.1606324315071106] [0:0.14361631870269775] [0:0.089582577347755432] [0:0.19677734375] [0:0.10956970602273941] [0:0.047694776207208633] [0:0.0659351646900177] [0:0.10700002312660217] [0:0.11041666567325592] [0:0.05319010466337204] [0:0.064592637121677399] [0:0.10702764987945557] [0:0.17721095681190491] [0:0.36186426877975464] [0:0.12555523216724396] [0:0.20521175861358643] [0:0.15459844470024109] [0:0.23239460587501526] [0:0.17016801238059998] [0:0.23418965935707092] [0:0.17115819454193115] [0:0.13628080487251282] [0:0.10641961544752121] [0:0.068564966320991516] [0:0.086798414587974548] [0:0.10662059485912323] [0:0.084140628576278687] [0:0.090749837458133698] [0:0.49721208214759827] [0:0.53021520376205444] [0:0.16742780804634094] [0:0.15851770341396332] [0:0.16921065747737885] [0:0.12394063174724579] [0:0.089004464447498322] [0:0.2027994841337204] [0:0.1357421875] [0:0.068651333451271057] [0:0.07134469598531723] [0:0.12921768426895142] [0:0.031475361436605453] [0:0.054815292358398438] [0:0.048142854124307632] [0:0.045848097652196884] [0:0.18290364742279053] [0:0.51594406366348267] [0:0.14376184344291687] [0:0.16852115094661713] [0:0.17519432306289673] [0:0.12097525596618652] [0:0.10135643929243088] [0:0.103515625] [0:0.13285140693187714] [0:0.11235007643699646] [0:0.043849572539329529] [0:0.042551349848508835] [0:0.047688800841569901] [0:0.059160307049751282] [0:0.040854848921298981] [0:0.046324573457241058] [0:0.44112679362297058] [0:0.36250767111778259] [0:0.30084326863288879] [0:0.15495464205741882] [0:0.14793707430362701] [0:0.10631150007247925] [0:0.10607233643531799] [0:0.25595998764038086] [0:0.1606522798538208] [0:0.13172955811023712] [0:0.0520760677754879] [0:0.057611145079135895] [0:0.06597900390625] [0:0.13384661078453064] [0:0.049446936696767807] [0:0.1373196542263031] [0:0.21526110172271729] [0:0.33117914199829102] [0:0.099328823387622833] [0:0.10292310267686844] [0:0.10996752232313156] [0:0.17655351758003235] [0:0.069042965769767761] [0:0.086590804159641266] [0:0.099775984883308411] [0:0.11723247170448303] [0:0.067182362079620361] [0:0.060745637863874435] [0:0.16977483034133911] [0:0.19443359971046448] [0:0.066181309521198273] [0:0.074604339897632599] [0:0.28077152371406555] [0:0.27705913782119751] [0:0.084445081651210785] [0:0.059081040322780609] [0:0.07571614533662796] [0:0.086717322468757629] [0:0.13334238529205322] [0:0.089111328125] [0:0.098550409078598022] [0:0.11956334859132767] [0:0.083308890461921692] [0:0.089645169675350189] [0:0.060234874486923218] [0:0.061286941170692444] [0:0.10532156378030777] [0:0.093797512352466583] [0:0.14563959836959839] [0:0.1459285169839859] [0:0.11265070736408234] [0:0.093336939811706543] [0:0.076008625328540802] [0:0.080088086426258087] [0:0.078802041709423065] [0:0.11505395919084549] [0:0.1237189769744873] [0:0.10158250480890274] [0:0.1285579651594162] [0:0.088433161377906799] [0:0.095591604709625244] [0:0.091452993452548981] [0:0.1178613007068634] [0:0.10008610785007477] [0:0.14523670077323914] [3:157918] [5.2853178977966309:85422.8828125] [52:43053132] [5.5977347983571235e-06:0.646992027759552] [0:0.37120744585990906] [0:0.47510150074958801] [0:0.36842137575149536] [0:0.25358420610427856] [0:0.36917561292648315] [0:0.34736430644989014] [0:0.50012123584747314] [0:0.30436545610427856] [0:0.51680010557174683] [0:0.095543809235095978] [0:0.2264317125082016] [0:0.1022023931145668] [0:0.22873245179653168] [9.0585746193028172e-07:0.33307147026062012] [0:0.36241590976715088] [0:0.5788988471031189] [0:0.14084424078464508] [0:0.26192966103553772] [0:0.43162640929222107] [0:0.40326181054115295] [0:0.25176841020584106] [0:0.25168845057487488] [0:0.29136279225349426] [0:0.25464555621147156] [0:0.12495703995227814] [0:0.32562288641929626] [0:0.33978527784347534] [0:0.13683953881263733] [0:0.30972886085510254] [0:0.20674121379852295] [0:0.46618473529815674] [0:0.57728075981140137] [0:0.31717133522033691] [0:0.13522537052631378] [0:0.38612663745880127] [0:0.63888150453567505] [0:0.1536676436662674] [0:0.13132274150848389] [0:0.11420034617185593] [0:0.44548952579498291] [0:0.61433315277099609] [0:0.32337367534637451] [0:0.20850613713264465] [0:0.14722844958305359] [0:0.27016091346740723] [0:0.11171171069145203] [0:0.16370643675327301] [0:0.27174168825149536] [0:0.22520273923873901] [0:0.67128509283065796] [0:0.2581908106803894] [0:0.28737571835517883] [0:0.23221041262149811] [0:0.12970477342605591] [0:0.33328494429588318] [0:0.46489241719245911] [0:0.32199910283088684] [0:0.38013359904289246] [0:0.35555499792098999] [0:0.14705871045589447] [0:0.19221004843711853] [0:0.075170323252677917] [0:0.27091896533966064] [0:0.60118860006332397] [5.0635107982088812e-06:0.99281913042068481] [0:0.13830699026584625] [4.2041078813781496e-06:0.10668259859085083] [3.3447045098000672e-06:0.11749271303415298] [1.0010886398958974e-05:0.21637484431266785] [0:0.5053752064704895] [0:0.096116967499256134] [1.1845828566947603e-06:0.26372498273849487] [4.2041078813781496e-06:0.42248335480690002] [0:0.57354557514190674] [0:0.52703589200973511] [0:0.29765188694000244] [0:0.17096596956253052] [9.6889862106763758e-06:0.33328768610954285] [5.8996870393457357e-06:0.20809343457221985] [1.9510775928210933e-06:0.11833884567022324] [0:0.30719476938247681] [6.4106834543053992e-06:0.2586263120174408] [4.3899244701606221e-06:0.16704832017421722] [8.3153072409913875e-06:0.1235358864068985] [0:0.12496162950992584] [0:0.11072453856468201] [0:0.42466765642166138] [0:0.76770704984664917] [0:0.34915843605995178] [0:0.12495573610067368] [0:0.39948862791061401] [0:0.18183094263076782] [0:0.32311898469924927] [0:0.29891723394393921] [0:0.18627451360225677] [0.10366310179233551:6.5846843719482422] [0:2161] [0:645] [0:81] [1:558] [1030:43230024] [512:4850790400] [0:1] [0:9751] [0:2394] [0:1] [0:1] [0:1] [0:1] [0:28211] none [12:135736] [1:37] [0:4281671936] [0:4283477248] [0:2095789184] none [2:41358] none [0:144] [0:255] [0:1766614144] [0:4294963200] [0:1048374912] [0:4273929984] [0:16777216] [0:4294967296] [65536:3212836864] [32:16777216] [32:4096] [0:10] [0:20] [0:26403] [0:20512] [1:10] [0:51] none [674:173780992] [512:139264] [0:4278212096] [0:50496] [0:67108864] [0:16777216] [0:4194304] [0:16846848] [0:2307459328] [10:979947776] [1:37] [0:7] [0:9] [0:34] [0:34] [-128048:1441792] [-178176:498176] [-438272:4096] [-528384:1556480] [-337920:186368] [-710144:46080] [-790016:1546240] none [-107520:733184] none [-1744896:38912] [-577664:224256] [-1591296:113664] none [-904704:1565184] [-91648:587264] [-146688:4278161408] [-1161216:1510912] none none [-1484800:1548288] [-1248256:54784] [-706560:1771008] [-1471488:514048] [-1654784:512000] none none [-210432:155648] [-2382848:0] [-268288:57757696] none [-114688:1232896] [-33562624:405504] none [-536064:1814775] [-2041856:87252480] none [-744448:1612288] [-19161088:708608] [-274110:1188352] [-1319424:1336832] [-34172928:430080] [-286720:91648] [-1332736:42749952] none none [-47616:76288] [-172544:1510400] [-2425393408:86016] none [-7.4919829368591309:45.460163116455078] [-7.9989514350891113:7.643035888671875] [-7.9503374099731445:5.9657077789306641] [-13.403029441833496:7.8160438537597656] none [-13.696393013000488:7.8262596130371094] [-23.065196990966797:7.9968318939208984] none [-7.8389711380004883:14.386927604675293] none [-7.9994368553161621:7.9341254234313965] [-7.9983844757080078:7.9228982925415039] [-7.9552936553955078:15.386815071105957] none [-5.8286137580871582:19.675289154052734] [-7.7163515090942383:15.182363510131836] none [-7.9225211143493652:7.9433155059814453] none none [-8.3676939010620117:7.9542322158813477] [-7.9227595329284668:7.7961435317993164] [-7.9978542327880859:15.889497756958008] [-7.9998326301574707:7.999415397644043] [-7.9992976188659668:8.4953470230102539] none none [-7.2824497222900391:7.5319929122924805] [-7.9998226165771484:0] [-7.9990024566650391:7.9993686676025391] none [-14.830734252929688:15.221481323242188] [-12.759761810302734:5.8415012359619141] none [-7.9903035163879395:7.6364493370056152] [-7.9998316764831543:36.149139404296875] none [-10.677403450012207:7.9981155395507812] [-15.807116508483887:22.074916839599609] [-8.3662986755371094:7.998530387878418] [-7.9996519088745117:7.6522974967956543] [-18.401327133178711:6.0412135124206543] [-15.451298713684082:7.9912886619567871] [-10.740259170532227:12.714399337768555] none none [-6.9393444061279297:8.6125526428222656] [-5.1670322418212891:7.7144904136657715] none none [-12742656:6836224] [-178176:12763136] [-436653:4096] [-589824:1556480] [-16015360:372736] [-2105344:45909] [-794624:1548288] none [-107060:730859] none [-2199552:40960] [-577654:225280] [-1593344:114688] none [-904944:1564788] [-131968:2322432] [-147456:67787792] [-1163264:1511424] none none [-1486848:1548288] [-1249280:241664] [-706444:2007040] [-1474560:513416] [-1835008:17202548] none none [-2764800:12763136] [-2383872:0] [-663552:57757256] none [-73728:2674688] [-173449344:405504] none [-535970:10649600] [-3833856:87252992] none [-743952:1613824] [-19160876:708608] [-646310:1191936] [-1323008:1335296] [-34170436:429478] [-286720:91765] [-1334629:9246828] none [-294912:1482752] [-47612:159744] [-172128:1511424] [-2425393408:5283840] none [-1:3] none [0:2] [-1:1] none none none [-1:0] none [0:4] [0:2] [-2:0] [0:1] none none none none [-2:2] none none [-2:1] none none none none none none none none [-1:2] none [-3:2] [-1:3] none none none [-1:1] none [-2:0] [-2:2] none none [0:2] [-1:6] [-1:1] [-1:2] none none none [-2:0] [0:9] none [-1:0] none [0:1] none none none [0:1] [0:5] [-1:0] none none [-7:0] none none none none none none none [0:1] [-1:1] [0:9] none none none none [0:5] none none none none none none none [0:1] [0:9] none none none none none none none [0:1] none [-2:0] [-1:0] [0:1] none [-1:1] [-1:1] [-1:1] [-1:1] [-1:1] [-1:1] [-1:1] [-1:1] none none [-1:1] none none none [-1:1] none none none none [-2:1] [-1:1] none none [0:1] [-1:1] none [-1:1] [-1:1] [-1:1] [-2:0] none [-1:1] none none [-1:1] none [-1:1] none none none none none [-1:2] none [-1:2] none [-1:1] [-1:1] none none [-1:2] [-2:1] [-2:1] none none [-1:0] [-1:1] none [-1:1] [-1:1] none [0:2] [-1:1] none [0:1] none none [-2:0] [-1:1] none [-1:1] none none none none none [-1:1] none none [-1:1] [-1:1] none none none none [-1:1] none none none none none none [-1:1] [-1:1] [-1:1] [-1:1] none none none [-2:0] none none [-1:1] none none [-1:1] none [-2:1] none none none [-1:1] none none none [-1:1] [0:2] [-1:1] [-1:1] none none [-1:1] [-1:1] none [-1:1] none none none [-1:0] [-1:1] [-1:1] none none none none none none none [-1:1] [0:1] none [0:1] none none none none [-1:0] none none none none none none none none none none none none [-1:1] [-1:1] [-1:1] none none none [-1:1] [-1:1] [-2:0] [-1:1] [-1:1] none none none [-1:1] none none none none none [-1:1] none none none none none none [-1:1] [-1:1] [-1:1] none none none none none [-1:1] [-1:1] none [-2:1] none [-1:2] [-1:2] none [-2:1] none none none none none none none none [-1:1] none none [-1:1] [-1:0] [-1:1] [-1:1] [-1:1] none none none [-1:1] [-1:1] [-1:0] none none none none none [-1:1] none none none none none none none none [-2:2] none [-1:1] none none none [-2:1] [-1:1] none [-1:1] none none [-1:2] none [-1:1] [-1:1] [-2:3] [-2:3] [-3:1] [-4:2] [-2:2] [-3:4] [-2:2] [-2:2] [-2:2] [-3:2] [-2:3] [-2:2] [-3:2] [-3:3] [-2:4] [-1:4] [-2:2] [-2:1] [-2:4] [-3:2] [-1:2] [-2:2] [-2:2] [-2:1] [-1:2] [-3:1] [-2:3] [-2:3] [-4:2] [-1:3] [-1:2] [-2:3] [-2:1] [-2:2] [-2:4] [-3:1] [-3:2] [-2:2] [-2:2] [-2:219] [-1:2] [-2:2] [-2:3] [-2:2] [-2:3] [-2:1] [-1:2] [-2:3] [-2:2] [-3:10] [-2:2] [-3:2] [-3:2] [-4:2] [-3:4] [-3:331] [-3:2] [-3:2] [-3:2] [-3:1] [-2:3] [-3:2] [-2:1] [-1:2] [-1:2] [-2:2] [-2:2] [-2:2] [-2:3] [-4:2] [-4:3] [-2:3] [-2:18] [-3:3] [-1:3] [-3:1] [-2:9] [-3:2] [-2:2] [-2:3] [-2:1] [-1:2] [-1:2] [-2:3] [-3:3] [-4:1] [-2:3] [-2:2] [-2:2] [-2:3] [-3:3] [-2:2] [-2:2] [-2:2] [-3:3] [-3:4] [-3:4] [-4:4] [-3:3] [-269:4] [-7:1] [-2:2] [-2:3] [-2:2] [-2:3] [-2:3] [-3:3] [-3:2] [-2:2] [-2:3] [-2:2] [-2:4] [-2:2] [-2:2] [-2:1] [-3:63] [-3:4] [-2:3] [-2:3] [-3:2] [-2:3] [-3:2] [-1:1] [-4:2] [-3:2] [-2:2] [-1:3] [-2:2] [-2:3] [-3:2] [-2:2] [-2:2] [-2:2] [-2:1] [-3:2] [-3:14] [-2:3] [-3:3] [-12:2] [-2:2] [-2:2] [-4:2] [-2:2] [-3:2] [-3:3] [-2:3] [-2:3] [-2:211] [-2:2] [-2:2] [-1:1] [-2:1] [-2:2] [-2:2] [-1:2] [-2:2] [-2:2] [-2:2] [-3:2] [-1:2] [-2:2] [-2:2] [-2:2] [-2:2] [-1:2] [-3:2] [-2:2] [-2:2] [-2:3] [-2:3] [-2:3] [-4:2] [-2:1] [-2:1] [-2:1] [-1:1] [-2:3] [-2:3] [-3:2] [-2:3] [-3:2] [-2:3] [-3:3] [-2:2] [-3:2] [-2:2] [-3:3] [-7:3] [-4:2] [-2:5] [-2:3] [-2:2] [-2:1] [-2:2] [-2:2] [-2:2] [-2:2] [-2:4] [-1:3] [-2:2] [-2:3] [-2:2] [-2:2] [-2:3] [-2:2] [-1:1] [-3:2] [-2:3] [-2:2] [-3:2] [-2:2] [-2:3] [-1:3] [-2:2] [-3:1] [-2:2] [-2:2] [-2:3] [-2:1] [-2:2] [-3:404] [-3:1] [-2:3] [-2:3] [-3:3] [-3:1] [-3:2] [-2:2] [-2:3] [-17:1] [-2:4] [-2:2] [-2:3] [-2:2] [-2:2] [-2:2] [-3:2] [-3:1] [-2:2] [-2:2] [-3:2] [-3:3] [-2:2] [-2:2] [-2:3] [-2:3] [-2:2] [-3:2] [-2:2] [-3:2] [-2:2] [-2:2] [-2:4] [-2:19] [-3:2] [-2:2] [-2:226] [-2:2] [-2:3] [-2:2] [-2:2] [-193:2] [-2:2] [-1:2] [-4:2] [-2:2] [-2:2] [-2:2] [-2:1] [-1:2] [-3:3] [-2:3] [-2:2] [-2:845] [-2:2] [-1:2] [-3:2] [-1:3] [-2:2] [-2:2] [-5:3] [-4:2] [-3:2] [-3:2] [-2:2] [-2:2] [-2:2] [-3:2] [-3:11] [-2:3] [-2:2] [-2:2] [-2:2] [-2:3] [-2:1] [-2:1] [-3:2] [-3:5] [-2:72] [-8:1] [-4:2] [-2:2] [-2:4] [-3:2] [-2:1] [-2:2] [-2:4] [-2:9] [-2:2] [-4:1] [-2:3] [-2:3] [-2:4] [-3:2] [-4:2] [-2:4] [-2:4] [-3:2] [-2:151] [-3:2] [-2:2] [-2:1] [-2:2] [-3:2] [-33:4] [-3:2] [-2:3] [-2:2] [-2:4] [-3:3] [-2:4] [-2:1] [-1:2] [-3:2] [-11:2] [-2:2] [-3:2] [-2:2] [-2:3] [-2:3] [-2:2] [-8691:2] [-1:2] [-1:2] [-4:2] [-1:1] [-4:2] [-3:2] [-2:2] [-2:2] [-3:3] [-2:2] [-2:2] [-2:2] [-2:1] [-2:2] [-2:2] [-2:1] [-4:3] [-4:2] [-2:2] [-4:2] [-2:2] [-2:2] [-2:3] [-2:3] [-3:4] [-2:2] [-3:3] [-3:2] [-2:2] [-2:3] [-2:2] [-1:40] [-2:4] [-3:2] [-2:2] [-2:3] [-2:2] [-2:2] [-3:2] [-2:3] [-2:3] [-3:2] [-1:2] [-3:2] [-4:1] [-2:2] [-3:1] [-2:4] [-1:2] [-3:1] [-2:2] [-2:1] [-2:3] [-2:2] [-2:1] [-2:2] [-2:3] [-2:2] [-2:2] [-2:5] [-3:2] [-3:4] [-2:2] [-2:2] [-2:3] [-2:2] [-2:1] [-2:10] [-2:3] [-5:2] [-31:3] [-2:2] [-2:2] [-12:3] [-2:19] [-140:2] [-2:2] [-2:2] [-2:2] [-4:1] [-1:3] [-1:2] [-2:2] [-3:2] [-2:1] [-2:3] [-2:2] [-2:2] [-3:1] [-3:36] [-2:2] [-3:2] [-1:1] [-2:3] [-2:2] [-2:2] [-2:2] [-2:1] [-2:2] [-3:2] [-3:3] [-2:2] [-2:4] [-3:2] [-2:2] [-2:2] [-1:2] [-2:3] [-345:3] [-1:3] [-24:3] [-3:2] [-1:2] [-2:2] [-2:2] [-2:2] [-2:2] [-3:2] [-2:2] [-3:2] [-2:3] [-2:3] [-2:1] [-3:6] [-2:2] [-4:2] [-2:2] [-2:2] [-1:3] [-2:1] [-2:1] [-2:3] [-2:2] [-2:3] [-4:3] [-2:3] [-2:17] [-2:2] [-3:2] [-1:2] [-2:2] [-2:1] [-2:2] [-2:2] [-2:2] [-3:1] [-3:2] [-3:2] [-3:5] [-2:2] [-2:3] [-2:2] [-3:2] [-2:2] [-3:2] [-2:2] [-2:2] [-4:2] [-3:2] [-3:3] [-25:2] [-2:2] [-2:4] [-3:25] [-2:2] [-3:3] [-3:2] [-2:3] [-1:2] [-2:2] [-2:2] [-3:2] [-2:3] [-2:3] [-2:3] [-3:3] [-3:2] [-2:2] [-2:2] [-2:2] [-2:1] [-2:4] [-2:3] [-3:3] [-12:2] [-2:2] [-4:1] [-1:2] [-2:2] [-3:4] [-1:2] [-2:2] [-2:2] [-2:4] [-2:2] [-3:2] [-2:3] [-2:2] [-2:3] [-2:2] [-2:4] [-1:2] [-1:2] [-2:3] [-3:2] [-2:2] [-2:2] [-2:2] [-2:2] [-3:2] [-2:1] [-2:26] [-3:2] [-2:2] [-1:2] [-2:3] [-2:3] [-2:1] [-2:2] [-1:3] [-1:3] [-4:2] [-3:2] [-3:2] [-4:2] [-2:2] [-1:3] [-2:2] [-2:2] [-2:2] [-2:2] [-2:2] [-2:2] [-5:2] [-2:3] [-3:2] [-2:2] [-2:1] [-3:2] [-5:1] [-2:2] [-3:2] [-3:1] [-2:4] [-2:3] [-3:3] [-6:2] [-2:3] [-2:4] [-2:2] [-1:4] [-2:2] [-15:3] [-2:4] [-3:4] [-2:2] [-4:2] [-2:2] [-2:4] [-2:15] [-4:2] [-2:2] [-2:3] [-2:3] [-3:2] [-2:2] [-4:3] [-53:2] [-2:2] [-3:2] [-3:257] [-3:1] [-2:2] [-1:2] [-4:2] [-2:1] [-2:4] [-2:2] [-3:2] [-3:3] [-2:1] [-4:3] [-3:3] [-2:1] [-2:2] [-2:2] [-2:12] [-1:2] [-2:2] [-3:3] [-4:2] [-1:3] [-2:2] [-2:3] [-5:3] [-2:4] [-3:2] [-8:4] [-1:2] [-2:1] [-2:2] [-2:2] [-2:1] [-6:3] [-2:2] [-4:2] [-2:1] [-2:2] [-64:3] [-1:2] [-3:4] [-2:4] [-3:4] [-3:2] [-2:2] [-3:2] [-4:3] [-1:2] [-4:2] [-3:2] [-1:3] [-3:1] [-2:2] [-2:2] [-1:2] [-1:1] [-2:1] [-4:2] [-8:2] [-3:3] [-2:2] [-1:2] [-3:2] [-1:2] [-2:3] [-2:2] [-2:3] [-2:3] [-3:2] [-2:1] [-1:2] [-2:1] [-2:3] [-2:3] [-2:277] [-2:3] [-2:3] [-2:2] [-8:5] [-2:2] [-3:1] [-282:6] [-2:2] [-2:2] [-2:3] [-3:1] [-2:2] [-2:2] [-3:2] [-2:2] [-2:24] [-2:2] [-2:2] [-2:2] [-2:2] [-3:2] [-2:2] [-2:2] [-8:2] [-2:2] [-2:2] [-1:2] [-1:3] [-4:2] [-1:2] [-2:3] [-3:2] [-2:2] [-2:3] [-2:3] [-3:2] [-2:2] [-4:2] [-2:2] [-3:3] [-2:3] [-4:3] [-1:2] [-2:2] [-2:3] [-1:2] [-3:2] [-2:3] [-2:2] [-2:358] [-3:2] [-2:3] [-3:3] [-2:2] [-2:2] [-2:3] [-4:1] [-2:2] [-3:2] [-2:3] [-2:1] [-2:2] [-2:2] [-5:3] [-2:2] [-1:2] [-2:105] [-2:2] [-3:3] [-2:2] [-3:2] [-2:2] [-2:4] [-4:2] [-2:2] [-4:22] [-2:2] [-3:2] [-2:2] [-2:2] [-3:2] [-3:4] [-2:2] [-2:3] [-2:3] [-1:3] [-2:2] [-2:3] [-2:2] [-2:2] [-2:2] [-2:4] [-3:2] [-1:3] [-2:1] [-3:1] [-3:2] [-1:3] [-2:3] [-2:2] [-2:2] [-1:2] [-2:2] [-2:2] [-3:3] [-33:3] [-2:3] [-3:1] [-3:2] [-3:1] [-1:2] [-5:2] [-3:2] [-2:2] [-2:299] [-3:2] [-4:2] [-2:2] [-1:3] [-2:3] [-3:2] [-3:1] [-50:3] [-2:2] [-2:2] [-1:2] [-3:2] [-2:3] [-2:3] [-2:3] [-2:3] [-2:3] [-3:3] [-2:2] [-2:2] [-3:1] [-4:4] [-2:2] [-2:2] [-2:3] [-2:6] [-2:2] [-2:2] [-2:2] [-2:2] [-1:3] [-2:2] [-1:2] [-2:3] [-2:2] [-2:3] [-3:2] [-2:2] [-2:2] [-2:2] [-2:2] [-2:2] [-1:3] [-311:3] [-1:2] [-2:2] [-2:5] [-3:2] [-2:3] [-1:4] [-3:2] [-2:2] [-4:4] [-2:3] [-3:2] [-2:45] [-3:2] [-2:2] [-1:2] [-3:3] [-2:2] [-2:2] [-2:2] [-2:2] [-3:2] [-3:2] [-3:3] [-2:4] [-3:2] [-2:2] [-1:2] [-2:2] [-2:23] [-2:2] [-5:3] [-2:2] [-3:3] [-3:3] [-2:2] [-362:2] [-2:2] [-2:2] [-2:2] [-373:2] [-3:3] [-2:2] [-2:2] [-2:3] [-2:1] [-2:2] [-2:2] [-3:2] [-2:5] [-3:2] [-2:2] [-3:3] [-2:2] [-2:3] [-2:2] [-2:2] [-2:2] [-1:1] [-188:3] [-2:2] [-2:2] [-1:2] [-2:2] [-2:1] [-2:3] [-2:2] [-3:2] [-3:2] [-2:6] [-2:4] [-3:2] [-2:2] [-3:2] [-2:3] [-2:2] [-3:2] [-12:4] [-1:3] [-2:3] [-3:2] [-19:2] [-2:2] [-2:1] [-2:1] [-3:2] [-2:2] [-257436:2] [-2:418] [-2:4] [-720:2] [-3:2] [-3:90] [-2:3] [-1:2] [-3:1] [-3:2] [-3:2] [-3:2] [-3:2] [-2:2] [-3:3] [-2:2] [-2:2] [-2:2] [-182:2] [-3:2] [-2:3] [-2:2] [-2:5] [-2:2] [-2:2] [-2:2] [-3:2] [-3:2] [-4:1] [-2:1] [-2:1] [-2:2] [-3:2] [-1:2] [-2:2] [-2:2] [-3:2] [-1:3] [-1:2] [-2:2] [-3:2] [-3:2] [-3:3] [-2:3] [-2:2] [-3:2] [-2:3] [-3:3] [-1:2] [-2:3] [-1:2] [-2:2] [-6:2] [-3:2] [-3:1] [-2:2] [-2:2] [-3:2] [-2:3] [-3:3] [-4:2] [-2:3] [-2:1] [-3:1] [-3:3] [-2:2] [-3:2] [-3:2] [-1:2] [-2:3] [-2:2] [-4:2] [-1:3] [-1:2] [-2:1] [-1:2] [-2:2] [-2:2] [-3:2] [-2:3] [-2:2] [-2:2] [-4:2] [-4:2] [-2:2] [-3:12] [-6:2] [-3:2] [-3:2] [-2:2] [-2:8] [-3:1] [-13:6] [-9:6] [-3:9] [-6:12] [-11:4] [-8:8] [-7:4] [-10:5] [-13:12] [-5:7] [-6:5] [-9:6] [-8:5] [-8:6] [-7:7] [-6:5] [-5:6] [-13:5] [-7:9] [-6:6] [-7:13] [-5:6] [-5:15] [-8:4] [-10:9] [-6:11] [-14:9] [-5:8] [-5:6] [-8:7] [-10:6] [-11:8] [-11:6] [-7:9] [-9:7] [-5:12] [-4:10] [-6:11] [-5:8] [-11:11] [-7:12] [-7:25] [-18:10] [-7:4] [-9:10] [-19:11] [-10:8] [-16:10] [-7:8] [-8:5] [-10:16] [-6:6] [-12:7] [-13:8] [-28:12] [-6:6] [-4:13] [-11:8] [-15:9] [-4:8] [-10:14] [-7:7] [-8:5] [-10:5] [-8:16] [-11:12] [-10:5] [-9:6] [-6:7] [-4:5] [-5:5] [-6:8] [-8:14] [-6:8] [-8:12] [-7:9] [-5:7] [-5:8] [-4:4] [-5:7] [-17:9] [-8:8] [-6:12] [-18:7] [-9:9] [-7:5] [-6:15] [-6:10] [-6:15] [-17:8] [-7:4] [-6:14] [-8:6] [-12:14] [-14:5] [-4:8] [-7:7] [-7:4] [-7:4] [-7:4] [-9:8] [-10:7] [-9:3] [-6:6] [-11:6] [-5:9] [-7:8] [-7:10] [-12:5] [-9:4] [-9:10] [-5:15] [-5:8] [-20:4] [-6:5] [-6:5] [-4:7] [-13:6] [-11:7] [-10:8] [-5:7] [-4:10] [-5:5] [-7:9] [-7:6] [-14:10] [-7:6] [-9:11]
tree_sizes=2554 2552 2554 2554 2574 2571 2564 2585 2578 2582 2603 2598 2582 2592 2597 2596 2587 2590 2611 2605 2617 2601 2613 2602 2589 2602 2602 2607 2585 2587 2595 2602 2613 2593 2606 2621 2620 2606 2616 2617 2595 2621 2609 2610 2626 2643 2625 2620 2629 2638 2615 2612 2634 2642 2635 2617 2625 2633 2624 2624 2640 2632 2625 2640 2620 2633 2608 2613 2638 2626 2643 2630 2614 2645 2653 2630 2632 2633 2632 2618 2619 2634 2613 2653 2619 2643 2630 2622 2629 2664 2631 2633 2653 2622 2629 2645 2627 2639 2589 2632

Tree=0
num_leaves=31
num_cat=0
split_feature=643 623 242 1670 629 513 1489 360 2185 646 16 1793 71 1702 515 750 55 139 22 506 553 79 1 119 372 511 586 655 2051 1740
split_gain=2604.38 1005.2 220.631 180.334 275.209 140.274 119.189 116.281 107.791 104.369 91.7036 88.1509 74.5835 74.2683 67.199 67.0173 51.7147 55.5984 45.7824 43.6223 37.8076 37.5473 34.788 34.7617 34.4526 31.872 29.9178 26.8988 25.8831 24.2373
threshold=202375168.00000003 1.0000000180025095e-35 0.0017887583235278728 1.0000000180025095e-35 1244401792.0000002 10.786158561706545 1.0000000180025095e-35 1.3947271327197088e-05 -1.0000000180025095e-35 6.5000000000000009 0.027250109240412716 1.0000000180025095e-35 0.0035413999576121573 -1.0000000180025095e-35 0.035414557904005058 -1.4745636582374571 0.00096353943808935593 0.023252395913004879 0.0039891439955681571 0.059706529602408416 0.005891485372558237 0.0018215791205875578 0.0050917898770421752 0.0045718143228441485 6.6271295509068309e-05 0.00020760233019245791 0.013922175392508509 297230.00000000006 -1.0000000180025095e-35 -1.0000000180025095e-35
decision_type=2 2 2 2 2 2 2 2 2 2 2 2 2 2 2 2 2 2 2 2 2 2 2 2 2 2 2 2 2 2
left_child=1 3 -3 8 -5 10 23 19 -1 11 22 13 20 -10 15 25 17 -15 24 -4 -9 27 -2 -6 -14 -13 -22 -19 -18 -17
right_child=5 2 7 4 6 -7 -8 12 9 -11 -12 14 18 16 -16 29 28 21 -20 -21 26 -23 -24 -25 -26 -27 -28 -29 -30 -31
leaf_value=-0.12800000190734864 0.1238095256544294 -0.15044248011787381 0.13312693696826605 -0.11861472038221565 0.16159527567235898 -0.19087333093235381 -0.15000000223517418 -0.15862069201880488 -0.092682928210351526 -0.18787879067839999 0.18208955495215173 -0.0046511628600054006 0.018867924809455872 0.1574712667143208 -0.10625000158324838 -0.1307692327178441 0.01176470605766072 0.12149532891322519 0.13333333532015482 -0.069387756135998943 0.12602739913822852 -0.17333333591620129 -0.15959596197412473 -0.083333334575096771 -0.1600000023841858 0.18074074343398766 -0.087500001303851604 -0.087500001303851604 0.18689218037476249 0.12380952565442949
leaf_count=50 21 452 323 231 677 1271 56 29 41 33 67 43 53 696 64 52 34 107 30 49 146 30 99 24 230 270 32 32 4730 21
internal_value=0 1.22156 -0.366071 1.51829 0.724696 -1.67078 1.30779 0.210762 1.64469 1.66845 -0.0534759 1.68758 -0.4 1.7552 0.835556 1.15026 1.77474 1.32486 -1.01597 1.06452 0.531401 0.295858 -1.1 1.5321 -1.26502 1.55272 0.876404 0.733813 1.85642 -0.575342
internal_count=9993 8535 1344 7191 988 1458 757 892 6203 6153 187 6120 520 5670 450 386 5629 865 313 372 207 169 120 701 283 313 178 139 4764 73
shrinkage=0.1


Tree=1
num_leaves=31
num_cat=0
split_feature=643 623 242 1670 629 513 374 2075 116 589 655 16 772 1774 161 711 472 637 613 149 64 222 580 596 2072 1330 448 5 575 161
split_gain=2127.21 822.035 180.413 148.176 224.3 114.991 104.896 97.5183 96.0779 83.7882 81.4245 74.8705 73.3235 68.8198 57.2196 70.4131 44.3692 65.7394 41.84 40.2684 39.8129 38.7989 31.3206 30.4408 29.443 28.5725 25.3118 21.4444 20.7243 19.97
threshold=202375168.00000003 1.0000000180025095e-35 0.0018746226560324433 1.0000000180025095e-35 1244401792.0000002 10.786158561706545 1.0810109870362796e-05 1.0000000180025095e-35 0.01431739376857877 0.0018326836870983245 71645.500000000015 0.027250109240412716 -358399.99999999994 -1.0000000180025095e-35 0.0037777441320940857 107264.00000000001 0.035776387900114066 662784.00000000012 11.500000000000002 0.00069472764153033506 0.0072024781256914147 0.00071282743010669958 0.040146388113498695 0.0058836194220930347 -1.0000000180025095e-35 -1.0000000180025095e-35 0.025869122706353668 0.0041421134956181058 0.009184779133647682 0.001478151243645698
decision_type=2 2 2 2 2 2 2 2 2 2 2 2 2 2 2 2 2 2 2 2 2 2 2 2 2 2 2 2 2 2
left_child=1 3 -3 8 27 11 -4 26 12 22 -8 23 -1 21 15 20 24 19 -17 29 -12 -11 -10 -2 -14 -26 28 -5 -6 -18
right_child=5 2 6 4 7 -7 10 -9 9 13 14 -13 16 -15 -16 18 17 -19 -20 -21 -22 -23 -24 -25 25 -27 -28 -29 -30 -31
leaf_value=-0.077642574324468 -0.15278164205933878 -0.1335031068740325 0.13853323376326909 -0.12840884590343751 0.15651662603493202 -0.17341367040138048 0.19077426907894346 -0.15515687106011258 0.054005908892830953 -0.13471311605643838 0.088150102633375929 0.16529335459441064 -0.0080948042147174944 0.15700089138367143 -0.14757078870989626 0.13964648227794454 0.08326869648315674 -0.090505687399226209 -0.14578739690337916 0.14684975414805065 -0.16523100851121061 0.13886102572810255 -0.14628957757210401 0.092363253642529869 -0.051162132691815201 0.16809709881489635 -0.049373117235732754 0.068086510784106824 0.037381999989965303 -0.16775163518130498
leaf_count=53 94 469 225 206 615 1271 66 49 51 60 228 67 39 324 157 24 26 60 147 521 28 32 82 26 24 4906 28 25 65 25
internal_value=0 1.10771 -0.331149 1.37739 0.656114 -1.51749 0.2063 1.18475 1.49255 0.690854 -0.202206 -0.0484362 1.57045 1.13447 -0.440793 -0.0603147 1.59273 1.09186 -1.05684 1.3017 0.604695 -0.396373 -0.695392 -0.996128 1.6565 1.67026 1.37425 -1.07143 1.4513 -0.398802
internal_count=9993 8535 1344 7191 988 1458 875 757 6203 549 650 187 5654 416 584 427 5601 632 171 572 256 92 133 120 4969 4930 708 231 680 51
shrinkage=0.1


Tree=2
num_leaves=31
num_cat=0
split_feature=643 623 242 1670 629 513 558 710 711 629 178 1352 505 1984 619 159 571 589 655 2116 125 732 133 115 495 1196 613 811 585 76
split_gain=1761.01 682.428 148.97 124.36 184.672 96.5679 87.5772 83.4376 81.8295 103.087 71.1084 65.4473 62.7413 69.1829 45.78 43.0445 41.2601 48.5379 41.0471 35.3374 36.0727 33.0266 30.6144 30.1512 25.4491 23.4569 22.7244 21.2456 20.3564 19.5663
threshold=202375168.00000003 1.0000000180025095e-35 0.0017097137751989069 1.0000000180025095e-35 1244401792.0000002 11.027099132537844 0.002419041004031897 -1.0000000180025095e-35 110336.00000000001 1260053440.0000002 0.00061828066827729355 -1.4999999999999998 0.00093656266108155261 1.0000000180025095e-35 3.5000000000000004 0.0037214863114058976 0.0003488411166472361 0.001055130909662694 262176.50000000006 1.0000000180025095e-35 0.0034848612267524008 5.346907615661622 0.0038943311665207152 0.0053432646673172721 0.028134795837104324 1.0000000180025095e-35 8.5000000000000018 26790.000000000004 0.0066465751733630904 0.0025688823079690342
decision_type=2 2 2 2 2 2 2 2 2 2 2 2 2 2 2 2 2 2 2 2 2 2 2 2 2 2 2 2 2 2
left_child=1 3 -3 6 -5 10 12 -6 9 15 -2 21 13 16 -12 22 -1 -18 -10 20 29 -8 -4 27 -9 -13 -20 -11 -15 -19
right_child=5 2 8 4 7 -7 11 24 18 23 14 25 -14 28 -16 -17 17 19 26 -21 -22 -23 -24 -25 -26 -27 -28 -29 -30 -31
leaf_value=0.14031917283697393 -0.16244772670396107 -0.12634367222294013 0.13183976370231226 -0.097469746337317198 -0.1202578447697073 -0.16121403584137664 -0.091276475504370486 0.13795745540770477 0.18222500008583034 0.14718873075817862 0.14842817513971165 0.15538835817995877 0.14607738886217805 0.050769253091015876 -0.14065119928963862 -0.15623828299760686 -0.1087708189887981 0.13361337533575995 0.085118853717156287 -0.16622699974760555 -0.082409856064965328 0.15513686600594798 -0.099832759916542169 -0.11165396639402535 -0.023938229872067875 -0.048560572515576259 -0.13589737499380899 0.054027881415213495 -0.15147765516545342 0.023993471848465477
leaf_count=302 79 442 53 231 60 1252 67 655 21 296 98 4585 589 28 29 107 71 274 21 24 46 33 41 25 42 23 189 149 73 88
internal_value=0 1.01619 -0.301834 1.26505 0.599718 -1.39907 1.37186 1.08427 0.166987 0.522589 -0.115596 1.50802 0.945343 0.611776 0.821769 -0.686016 0.810765 0.45654 -0.868918 0.711989 0.852959 -0.103427 0.306974 1.03836 1.28138 1.54355 -1.1376 1.15908 -0.957517 1.06878
internal_count=9993 8535 1344 7191 988 1458 6203 757 902 671 206 4708 1495 906 127 201 805 503 231 432 408 100 94 470 697 4608 210 445 101 362
shrinkage=0.1


Tree=3
num_leaves=31
num_cat=0
split_feature=643 623 242 1670 629 513 245 1489 374 515 655 1651 178 613 254 466 619 616 598 3 637 472 640 772 119 1379 1190 116 510 640
split_gain=1472.51 572.519 123.653 106.206 153.016 82.3781 80.4789 71.2439 70.3958 69.1401 61.116 60.6008 59.2125 42.037 47.9218 39.1846 37.8613 36.48 34.4739 31.0381 29.6883 40.3993 26.0246 33.9869 25.7293 24.2965 23.5778 22.1387 21.8972 20.3176
threshold=202375168.00000003 1.0000000180025095e-35 0.0017097137751989069 1.0000000180025095e-35 1244401792.0000002 11.027099132537844 0.00055775290820747625 1.0000000180025095e-35 1.0810109870362796e-05 0.027622524648904804 71645.500000000015 -1.0000000180025095e-35 0.00061828066827729355 15.500000000000002 0.0039355009794235238 0.0027430313639342789 3.5000000000000004 556112.00000000012 0.02830565627664328 0.011739191599190237 737024.00000000012 0.030383146367967132 12861.500000000002 -96255.999999999985 0.0045718143228441485 1.0000000180025095e-35 -1.0000000180025095e-35 0.015281382948160173 0.00048311696446035063 14478.000000000002
decision_type=2 2 2 2 2 2 2 2 2 2 2 2 2 2 2 2 2 2 2 2 2 2 2 2 2 2 2 2 2 2
left_child=1 3 -3 6 -5 12 9 24 -4 19 -10 18 -2 14 17 -11 -14 -12 -8 -1 25 -22 23 -15 -6 26 -13 -21 -17 -16
right_child=5 2 8 4 7 -7 11 -9 10 15 13 20 16 22 29 28 -18 -19 -20 27 21 -23 -24 -25 -26 -27 -28 -29 -30 -31
leaf_value=0.11841498073844035 -0.1505178882368676 -0.11633502987815014 0.11212286332864163 -0.088955461448571138 0.12525157138642704 -0.1505744526392227 0.077502372373124517 -0.12103770159966078 0.16769910326641344 0.086401013015673253 0.0871239074050002 -0.050420725786661819 0.13624890849520468 0.17991686873145232 -0.069689247346792188 -0.10391252057490463 -0.12916972214385364 -0.12376168010409744 -0.1376574962439322 0.094162896902847154 0.11320035568868142 -0.10259117173580419 -0.12229368404907637 -0.11155899586236959 -0.086264732547031389 -0.064258630708962386 0.14687642002848905 -0.19389369540067769 0.089976710117571301 0.13805108826047088
leaf_count=691 79 442 231 231 677 1252 92 56 67 106 48 25 98 30 23 142 29 112 46 21 174 45 240 36 24 23 4786 23 29 115
internal_value=0 0.940236 -0.276869 1.17229 0.55159 -1.30433 1.27279 0.999115 0.152855 0.74576 -0.179661 1.37701 -0.10675 -0.38193 0.159524 -0.118107 0.754404 -0.597958 0.0446466 1.07662 1.41419 0.6752 -0.910967 0.212879 1.17723 1.44794 1.45816 -0.573532 -0.713681 1.03184
internal_count=9993 8535 1344 7191 988 1458 6203 757 902 1012 671 5191 206 604 298 277 127 160 138 735 5053 219 306 66 701 4834 4811 44 171 138
shrinkage=0.1


Tree=4
num_leaves=31
num_cat=0
split_feature=643 623 173 2013 1391 2185 628 629 513 646 383 629 83 372 655 178 222 192 161 613 196 173 1964 619 89 128 627 1702 95 613
split_gain=1240.94 484.271 105.272 93.9198 97.8273 80.4523 76.7867 73.071 70.9987 70.9459 69.0686 62.3014 58.4395 56.6177 52.5727 49.7761 47.5517 47.6221 40.9104 44.5917 38.6447 33.4364 31.9051 31.5665 29.9706 34.5135 26.0535 24.1291 20.2454 19.9684
threshold=202375168.00000003 1.0000000180025095e-35 0.0015545404748991134 -1.0000000180025095e-35 -1.0000000180025095e-35 -1.0000000180025095e-35 6.5000000000000009 1244401792.0000002 11.027099132537844 6.5000000000000009 6.554558422067204e-05 1373948032.0000002 0.0036789856385439639 6.9699360665254071e-06 48470.000000000007 0.00061828066827729355 0.00056917421170510362 0.0049210407305508861 0.0037777441320940857 11.500000000000002 0.004794501932337881 0.00015022383740870285 1.0000000180025095e-35 3.5000000000000004 0.0057554335799068221 0.0035561936674639587 220.00000000000003 -1.0000000180025095e-35 0.0091256638988852518 10.500000000000002
decision_type=2 2 2 2 2 2 2 2 2 2 2 2 2 2 2 2 2 2 2 2 2 2 2 2 2 2 2 2 2 2
left_child=1 3 24 7 6 -6 -5 12 15 16 -9 -12 -1 -4 -15 -2 17 28 19 -16 21 -19 -13 -17 29 -26 -21 -18 -7 -3
right_child=8 2 13 4 5 9 -8 10 -10 -11 11 22 -14 14 18 23 27 20 -20 26 -22 -23 -24 -25 25 -27 -28 -29 -30 -31
leaf_value=0.12403406365628826 -0.14079218501881752 0.0044490540961504826 0.10786015589412766 0.13215783611990081 -0.13194091100304067 0.12045393923337695 -0.10679471985505305 0.13288269824558699 -0.14192571013291985 -0.17413151734997481 -0.083860100938586479 0.10313752082451254 -0.10664724883019452 0.16304113006897955 0.11451121281976255 0.12605609043179666 -0.05004534727182193 -0.17254493691453107 -0.12029588801200776 0.015644499878856726 -0.13706333994992545 0.09144797187741173 -0.13080797640394951 -0.11946295522577033 0.17023978529084421 -0.15062055334862715 -0.11188529715400676 0.13985819236814057 -0.084226287201056876 -0.13255028624159335
leaf_count=65 79 51 224 98 49 706 139 528 1252 32 152 251 172 66 107 98 28 23 163 149 57 152 27 29 35 24 121 4691 21 404
internal_value=0 0.875691 -0.255018 1.09387 1.20193 1.25712 -0.0957205 0.565656 -1.22699 1.28095 0.822368 0.211355 -0.45293 0.195179 -0.130058 -0.0994409 1.29903 0.878339 -0.337398 0.0294131 0.0711459 0.558395 0.797943 0.697914 -0.991475 0.391141 -0.412215 1.38661 1.14363 -1.17143
internal_count=9993 8535 1344 7191 5996 5759 237 1195 1458 5710 958 430 237 830 606 206 5678 959 540 377 232 175 278 127 514 59 270 4719 727 455
shrinkage=0.1


Tree=5
num_leaves=31
num_cat=0
split_feature=643 623 655 2013 1391 182 2185 628 629 711 513 646 372 222 180 192 141 656 534 905 353 811 772 254 2053 619 613 1702 811 196
split_gain=1052.6 413.024 91.5304 83.1874 84.0583 73.4623 68.1998 64.3218 62.1221 72.1803 61.7004 60.0565 57.457 43.4768 42.3762 40.7722 37.3416 35.9125 31.7831 30.1165 29.8228 27.0192 26.559 26.555 22.665 22.3255 22.1397 21.0252 20.6407 19.7608
threshold=202375168.00000003 1.0000000180025095e-35 17605.000000000004 -1.0000000180025095e-35 -1.0000000180025095e-35 0.0017722136108204725 -1.0000000180025095e-35 6.5000000000000009 1373948032.0000002 3736.0000000000005 11.027099132537844 6.5000000000000009 6.6271295509068309e-05 0.00056917421170510362 0.0022776079131290321 0.0049210407305508861 0.0072176863905042419 19264.000000000004 0.0041973495390266189 1.0000000180025095e-35 0.00062584559782408189 17306.000000000004 -43007.999999999993 0.0039355009794235238 1.0000000180025095e-35 3.5000000000000004 5.5000000000000009 -1.0000000180025095e-35 10902.000000000002 0.0046910252422094354
decision_type=2 2 2 2 2 2 2 2 2 2 2 2 2 2 2 2 2 2 2 2 2 2 2 2 2 2 2 2 2 2
left_child=1 3 -3 8 7 26 -6 -5 9 22 14 13 17 15 -2 -8 -10 -7 -17 21 -18 28 -1 -14 -25 -16 -4 -15 -11 -20
right_child=10 2 5 4 6 12 11 -9 16 19 -12 -13 23 27 25 18 20 -19 29 -21 -22 -23 -24 24 -26 -27 -28 -29 -30 -31
leaf_value=0.15158570331253085 -0.10661984480934282 0.16067020866399179 0.08902674838379214 0.12352660949544574 -0.1189969883775699 -0.092392205813928138 0.10681861564159097 -0.098616814073932441 0.1275888575960141 -0.086818312141140067 -0.13473176269906928 -0.16056864910810612 -0.08711432377368937 -0.045013413781621013 0.13762245827901082 -0.1056689266126104 -0.13338163134084077 0.095807565708904432 0.091250446487342304 0.14882499860297191 0.15441463819139536 -0.092798444118344037 -0.038568469500738611 0.039952537127410565 -0.15698906689809136 -0.097650578883361608 -0.12273386321514612 0.13223240603478589 0.070787205692690633 -0.10617031091318344
leaf_count=167 102 111 22 98 49 51 727 139 470 54 1252 32 298 28 81 72 45 266 135 36 24 255 39 168 30 23 398 4691 105 25
internal_value=0 0.820201 -0.23581 1.02703 1.13162 -0.396208 1.18425 -0.0885028 0.524041 0.0968413 -1.16234 1.20714 -0.0357276 1.22432 -0.09324 0.816509 1.05826 0.650663 0.0656864 -0.36122 -0.360394 -0.516216 1.13867 -0.477608 0.107908 0.853173 -1.11149 1.31061 0.160701 0.588462
internal_count=9993 8535 1344 7191 5996 1233 5759 237 1195 656 1458 5710 813 5678 206 959 539 317 232 450 69 414 206 496 198 104 420 4719 159 160
shrinkage=0.1


Tree=6
num_leaves=31
num_cat=0
split_feature=643 623 655 2013 1391 239 182 513 628 629 368 372 136 515 530 178 589 629 617 37 1643 161 655 518 619 637 116 646 635 613
split_gain=896.549 354.541 77.6674 74.1996 72.6409 63.6562 62.5798 54.4489 54.1031 53.3112 55.7572 47.4652 46.5521 40.5346 40.3722 37.6002 32.9663 31.4401 31.0639 29.872 25.1682 25.037 26.782 23.4845 23.057 20.9665 29.0767 19.1265 18.9683 18.7947
threshold=202375168.00000003 1.0000000180025095e-35 17605.000000000004 -1.0000000180025095e-35 -1.0000000180025095e-35 0.00064596437732689093 0.0017722136108204725 11.027099132537844 6.5000000000000009 1244401792.0000002 0.0084047154523432272 6.8640350946225239e-05 0.0017236427520401778 0.043254066258668906 0.0022515482269227509 0.00061828066827729355 0.0013716642861254515 1422391616.0000002 251904.00000000003 0.00084798480384051811 -1.0000000180025095e-35 0.00371922180056572 6124720.5000000009 0.0081672305241227167 3.5000000000000004 901120.00000000012 0.0067695146426558503 5.5000000000000009 11.500000000000002 5.5000000000000009
decision_type=2 2 2 2 2 2 2 2 2 2 2 2 2 2 2 2 2 2 2 2 2 2 2 2 2 2 2 2 2 2
left_child=1 3 -3 9 8 13 29 15 -5 12 23 18 -1 16 -15 -2 19 -12 -8 -6 -7 22 28 -11 -17 -22 -27 -18 -13 -4
right_child=7 2 6 4 5 20 11 -9 -10 10 17 21 -14 14 -16 24 27 -19 -20 -21 25 -23 -24 -25 -26 26 -28 -29 -30 -31
leaf_value=0.13624513423507745 -0.12735757059214714 0.152394048591104 0.079837362071437976 0.1160080055068515 0.13509771506411039 -0.10759836472112479 -0.027937842427479095 -0.12862751873185724 -0.091331625847306933 0.11793790551894331 -0.076205384479590604 -0.0081394710233487644 -0.088630720587336329 -0.12970941529355798 0.070744594348938233 0.11215822719344695 0.10681968435686466 0.068343412901102504 0.10736754264671899 -0.099616349392535178 0.12688281524629488 -0.11698051887224357 0.172213628154569 -0.01029481870958209 -0.1042998990082362 0.10143049967373093 -0.1419567439222312 -0.073145705943189795 -0.14273217248807718 -0.11517764984999999
leaf_count=54 79 111 22 98 37 20 114 1252 139 622 138 256 183 83 94 98 750 127 207 73 4561 149 30 71 29 84 29 28 57 398
internal_value=0 0.771059 -0.21802 0.968496 1.07038 1.12084 -0.365604 -1.10582 -0.0820777 0.487278 0.715078 -0.0327528 -0.397732 0.649823 -0.262532 -0.0864621 0.841798 -0.0947358 0.590129 -0.235105 1.23378 -0.441267 -0.136206 1.04247 0.624997 1.24507 0.326152 1.0019 -0.317705 -1.04066
internal_count=9993 8535 1344 7191 5996 5759 1233 1458 237 1195 958 813 237 1065 177 206 888 265 321 110 4694 492 343 693 127 4674 113 778 313 420
shrinkage=0.1


Tree=7
num_leaves=31
num_cat=0
split_feature=643 623 596 655 620 518 182 105 608 650 646 1750 372 464 619 244 613 700 501 21 32 93 359 22 2185 128 397 418 617 398
split_gain=766.581 305.1 70.3162 66.3351 59.3223 60.5019 53.5221 48.7353 48.6654 46.8113 47.0396 42.5731 39.2925 36.6173 33.4369 32.2419 30.9001 32.4923 29.2292 23.488 22.8238 22.6191 22.5487 21.4195 21.1165 20.8211 20.1977 18.4366 18.188 19.8525
threshold=202375168.00000003 1.0000000180025095e-35 0.00085815819329582166 17605.000000000004 114.50000000000001 0.0081672305241227167 0.0017722136108204725 0.0053108483552932748 0.0021981204627081756 8.0000000000000018 2.0000000000000004 1.0000000180025095e-35 6.6271295509068309e-05 0.053961800411343581 2.5000000000000004 0.0037323329597711567 1.0000000180025095e-35 -1215.9999999999998 0.06023117899894715 0.0028941133059561257 0.0068543388042598971 0.0032399309566244487 1.5778703527757901e-05 0.0039891439955681571 -1.0000000180025095e-35 0.0056313348468393096 5.9449395848787396e-05 0.00053617981029674422 243712.00000000003 4.2171257064183018e-06
decision_type=2 2 2 2 2 2 2 2 2 2 2 2 2 2 2 2 2 2 2 2 2 2 2 2 2 2 2 2 2 2
left_child=1 2 7 -3 9 11 27 13 -2 10 15 16 18 -1 19 -4 17 20 28 -10 -6 -9 -14 26 -12 -13 -24 -5 29 -8
right_child=8 3 4 6 5 -7 12 21 14 -11 24 25 22 -15 -16 -17 -18 -19 -20 -21 -22 -23 23 -25 -26 -27 -28 -29 -30 -31
leaf_value=0.095486116003147381 -0.12238416391966664 0.14560749195252753 0.08927016787523355 0.060892784325484457 0.11281041501189475 -0.052785333628307902 0.10724699573729433 -0.090683620536133366 -0.096731768929363582 -0.16807814836923493 -0.08021062745683237 0.11417158797577773 0.045239846556873693 -0.042139879364028979 -0.11556759577986134 -0.10096568104659606 -0.057883129189718205 -0.05095058994431121 -0.12157574103849969 0.13491048560914923 -0.047203968896925623 0.10284676609021222 -0.1248895270504507 0.1013500520590576 0.11991758968674875 -0.077625170301593438 -0.024110005608931083 -0.11093892611282175 0.11430984520805357 -0.09220902193103829
leaf_count=413 1268 111 95 31 317 177 41 169 29 26 22 924 104 112 77 77 127 91 35 84 46 34 199 31 4535 26 162 389 195 46
internal_value=0 0.726715 0.915587 -0.202175 0.991823 0.644923 -0.338309 0.277368 -1.05775 1.12429 1.14215 0.789535 -0.0301157 0.638398 -0.00910867 0.0194496 0.333837 0.605592 0.547213 0.754227 0.909115 -0.597997 -0.401521 -0.638324 1.18728 1.08371 -0.786858 -0.977818 0.77833 -0.00785339
internal_count=9993 8535 7191 1344 6463 1708 1233 728 1458 4755 4729 1531 813 525 190 172 581 454 317 113 363 203 496 392 4557 950 361 420 282 87
shrinkage=0.1


Tree=8
num_leaves=31
num_cat=0
split_feature=643 623 2013 589 116 655 242 629 711 513 1391 711 629 650 628 603 21 122 1548 615 115 68 112 905 772 2094 1279 32 459 289
split_gain=656.059 262.399 63.6762 57.5788 75.7638 56.9672 47.4729 45.4098 50.5016 44.6606 43.9313 38.7754 44.9134 34.953 34.0643 31.2582 29.9423 29.3631 30.3825 32.2518 28.8533 24.7447 24.7661 24.176 22.8284 22.3838 20.7086 20.2221 19.9136 19.6533
threshold=202375168.00000003 1.0000000180025095e-35 -1.0000000180025095e-35 0.0018326836870983245 0.011406696867197754 17605.000000000004 0.0015954676200635733 1373948032.0000002 3736.0000000000005 11.027099132537844 -1.0000000180025095e-35 110336.00000000001 1260053440.0000002 8.0000000000000018 6.5000000000000009 0.0058783921413123616 0.0050717641133815059 0.00073186887311749171 -1.0000000180025095e-35 3.5000000000000004 0.0051054987125098714 0.0042869807220995435 0.0038412922294810419 1.0000000180025095e-35 -38911.999999999993 1.0000000180025095e-35 1.0000000180025095e-35 0.0039466654416173705 0.0054792428854852923 0.00011704995631589556
decision_type=2 2 2 2 2 2 2 2 2 2 2 2 2 2 2 2 2 2 2 2 2 2 2 2 2 2 2 2 2 2
left_child=1 2 7 4 28 -3 -7 8 24 16 14 12 21 17 -5 -9 -2 18 19 -12 -14 22 -8 27 -1 -19 -20 -10 -4 -13
right_child=9 5 3 10 -6 6 11 15 23 -11 13 29 20 -15 -16 -17 -18 25 26 -21 -22 -23 -24 -25 -26 -27 -28 -29 -30 -31
leaf_value=0.13508125225388223 -0.077575058295258986 0.1399539625097137 0.10608217513158301 0.10850415881307447 -0.069026878534327651 -0.093271733266016774 0.090032024868173771 -0.098106794107241754 0.0045749026802470692 -0.11889949351940568 -0.18951660249562211 -0.10247548185129557 0.082058288187813716 -0.15569667131127587 -0.071400892251961584 0.10504186132107289 0.095915822384138691 0.1195997524767394 0.093729678116444226 0.090049580706892507 -0.11656936980188175 0.14183859622194411 -0.12768252383771062 0.1383775243971426 -0.051450308648944447 -0.087838869584589543 -0.10223744446778381 -0.089499610026743032 -0.10029656190909418 0.11057401452182085
leaf_count=170 119 111 382 93 209 416 29 37 185 1252 38 197 371 23 114 502 87 4317 708 39 35 23 141 36 36 23 26 229 24 21
internal_value=0 0.68547 0.865942 0.966806 0.322831 -0.187951 -0.313835 0.408342 0.0348535 -1.01253 1.0459 -0.0234082 0.252439 1.09001 0.0567147 0.896295 -0.052334 1.10371 0.714424 -0.569063 0.64584 -0.6067 -0.899464 -0.346053 0.97423 1.18238 0.861286 -0.485228 0.92761 -0.805377
internal_count=9993 8535 7191 5996 615 1344 1233 1195 656 1458 5381 817 599 5174 207 539 206 5151 811 77 406 193 170 450 206 4340 734 414 406 218
shrinkage=0.1


Tree=9
num_leaves=31
num_cat=0
split_feature=643 623 596 620 487 613 772 609 406 196 637 760 1536 588 511 557 5 655 528 376 360 214 165 2185 374 235 561 627 592 55
split_gain=563.338 226.848 60.5723 52.2048 50.5697 50.4092 43.7598 42.6194 41.8305 41.8257 40.4069 37.3241 48.962 35.3571 34.6847 33.6832 30.2549 29.0723 27.6557 24.8747 23.7397 22.0548 18.9495 18.3319 16.8629 16.5785 15.529 15.1141 22.6801 14.0049
threshold=202375168.00000003 1.0000000180025095e-35 0.00085815819329582166 114.50000000000001 0.0015711693558841946 14.500000000000002 -112639.99999999999 0.0015941021847538652 0.0036294446326792244 0.0048464229330420503 254464.00000000003 -4.4183735847473136 -1.0000000180025095e-35 0.034753113985061652 0.003144812886603177 0.0010500773787498476 0.0031590800499543552 26776.000000000004 0.010921203065663578 0.00011231060125282967 0.00010634754653437996 0.0019190591410733762 0.0035579579416662459 -1.0000000180025095e-35 0.00043912749970331793 0.0040603012312203654 0.0046858666464686402 132.00000000000003 0.018256570212543014 0.00053757877321913849
decision_type=2 2 2 2 2 2 2 2 2 2 2 2 2 2 2 2 2 2 2 2 2 2 2 2 2 2 2 2 2 2
left_child=1 2 8 11 -5 15 19 -2 -1 20 16 12 -4 -14 -9 -3 -10 -8 22 -7 -6 -22 -17 -13 -24 -11 -15 28 -19 -25
right_child=7 5 3 4 9 6 17 14 10 25 -12 23 13 26 -16 18 -18 27 -20 -21 21 -23 24 29 -26 -27 -28 -29 -30 -31
leaf_value=0.086342298136741588 -0.11788777763843382 -0.09223801531828929 -0.077372932135079467 -0.04696294682097208 0.098614828429166315 0.11910740127574837 0.13868387293911755 -0.086764944017137871 0.069121935548074151 -0.13682785682291443 -0.15674323063891582 -0.074587999096071597 0.10752838058713415 -0.13045602225416875 0.081475511799656355 0.1031398051265182 -0.064883508239444818 0.16586368452039776 -0.099947568472313578 -0.080135777768203645 0.084246109565551411 -0.03141632787892884 0.052114873450819485 0.055603614695049111 -0.10878883345413293 0.044504370713652167 0.067448620099203396 -0.10324806069461862 -0.13849096702413682 0.11705091809698359
leaf_count=308 1183 95 110 194 1092 89 32 162 202 54 84 22 513 49 113 289 134 25 54 44 179 149 115 206 44 40 35 534 23 3820
internal_value=0 0.648974 0.82228 0.89827 0.562623 -0.175255 -0.559738 -0.970768 0.214813 0.710348 -0.227234 1.03163 0.53745 0.826518 -0.145966 0.299942 0.120262 -0.817922 0.523262 0.551609 0.81655 0.29631 0.697336 1.12212 0.0914996 -0.647171 -0.516287 -0.924469 0.260851 1.13603
internal_count=9993 8535 7191 6463 1708 1344 747 1458 728 1514 420 4755 707 597 275 597 336 614 502 133 1420 328 448 4048 159 94 84 582 48 4026
shrinkage=0.1


Tree=10
num_leaves=31
num_cat=0
split_feature=643 623 2013 506 515 510 609 1391 383 629 137 891 196 10 10 510 1916 10 89 637 125 629 800 515 371 620 590 550 38 1190
split_gain=483.515 195.967 55.4319 53.5843 50.7487 44.1938 38.9893 38.9169 38.8578 43.3076 34.0165 33.4603 29.7392 29.2629 32.4982 28.9409 27.9166 25.4987 36.4135 24.9716 24.7868 24.6169 25.0533 23.8588 23.7896 22.4837 19.7052 19.0125 19.7699 17.8061
threshold=202375168.00000003 1.0000000180025095e-35 -1.0000000180025095e-35 5.6877026509027935e-05 0.027467374689877037 0.0098365894518792647 0.0015941021847538652 -1.0000000180025095e-35 4.4763641199097044e-05 1233722432.0000002 0.002363936742767692 1.0000000180025095e-35 0.0037167660193517808 0.0038058958016335969 0.0046577316243201503 0.0029596796957775955 1.0000000180025095e-35 0.0019865253707394008 0.0038177318638190631 737024.00000000012 0.0043005389161407956 1373948032.0000002 -10695.999999999998 0.012815379537642004 6.2516887737729129e-06 10.500000000000002 0.004708942025899888 0.02043835818767548 0.00068319952697493147 -1.0000000180025095e-35
decision_type=2 2 2 2 2 2 2 2 2 2 2 2 2 2 2 2 2 2 2 2 2 2 2 2 2 2 2 2 2 2
left_child=1 2 8 4 11 17 -2 16 9 -1 -6 -4 21 -7 24 -8 -5 18 -3 29 27 22 -10 -21 -15 -25 -12 -13 -29 -9
right_child=6 5 3 7 10 13 15 19 12 -11 26 20 -14 14 -16 -17 -18 -19 -20 23 -22 -23 -24 25 -26 -27 -28 28 -30 -31
leaf_value=-0.12027298049255239 -0.11403970862724733 -0.083681900504807144 -0.16126112083722741 -0.053076789580216388 0.066311502468476016 0.0532106112239926 -0.081405173720314722 -0.084150331127786859 -0.058621010974306297 0.09976055751010654 -0.11112420776485957 0.10244171423718945 -0.098489746320413268 0.046648967568611303 0.098761976771134186 0.073866915581528012 0.12656204800005069 -0.11009865040038448 0.1329836724299088 0.10490832469570752 -0.094680578574883892 0.076491173448825528 0.095468011183387755 0.056274724318703631 -0.092355382019349286 -0.18552865915400263 0.029559994786272734 0.072321079159640728 -0.15309523885452983 0.11292332895091813
leaf_count=44 1183 106 25 133 162 440 162 21 197 530 161 943 114 78 79 113 69 321 61 98 35 241 69 42 259 38 71 58 30 4110
internal_value=0 0.613762 0.780036 0.88144 0.501471 -0.163386 -0.930818 1.02049 0.342457 0.792228 -0.181603 0.774901 -0.0251271 0.135098 -0.289264 -0.135561 0.0535743 -0.717332 -0.00719212 1.07469 0.847127 0.214454 -0.217641 0.208206 -0.59242 -0.685233 -0.700054 0.920488 -0.0905274 1.11568
internal_count=9993 8535 7191 5996 1485 1344 1458 4511 1195 574 394 1091 621 856 416 275 202 488 167 4309 1066 507 266 178 337 80 232 1031 88 4131
shrinkage=0.1


Tree=11
num_leaves=31
num_cat=0
split_feature=643 613 655 1670 510 515 514 182 513 376 1499 772 372 619 619 891 2185 95 573 1279 255 25 1944 1165 66 593 629 401 517 433
split_gain=415.602 172.251 76.734 52.9788 58.8197 59.2279 57.0636 40.6319 36.1027 31.5714 30.2691 27.8754 27.5336 26.9244 25.9527 25.7631 25.6631 24.7995 23.6105 22.8488 21.0563 23.3688 20.9211 20.787 19.7346 19.5472 19.0195 24.3926 16.7942 16.51
threshold=202375168.00000003 4.5000000000000009 17605.000000000004 1.0000000180025095e-35 0.0011333403526805343 0.044412698596715934 21321.500000000004 0.0017722136108204725 11.027099132537844 0.00067533552646636974 1.0000000180025095e-35 -186367.99999999997 6.9699360665254071e-06 1.0000000180025095e-35 2.5000000000000004 1.0000000180025095e-35 -1.0000000180025095e-35 0.0022472802083939318 0.0017958254902623596 1.0000000180025095e-35 0.0076645691879093656 0.0029198356205597524 1.0000000180025095e-35 -1.0000000180025095e-35 0.0048468301538378009 0.042737688869237907 1244401792.0000002 5.8542886108625687e-05 0.0022437064908444886 0.00065363096655346464
decision_type=2 2 2 2 2 2 2 2 2 2 2 2 2 2 2 2 2 2 2 2 2 2 2 2 2 2 2 2 2 2
left_child=1 3 25 4 5 10 9 -4 14 26 13 -6 -9 15 18 -1 -17 28 -2 23 -14 24 -23 -18 -22 -3 27 -5 -7 -28
right_child=8 2 7 6 11 17 -8 12 -10 -11 -12 -13 20 -15 -16 16 19 -19 -20 -21 21 22 -24 -25 -26 -27 29 -29 -30 -31
leaf_value=-0.10701448417399641 -0.1145400334654684 0.1167000928758105 -0.093071161655309598 0.14261351928712779 -0.041087774425993102 -0.087647032673694725 -0.066171044506439416 0.069962830279867744 -0.1078649882957556 -0.15305054372673768 -0.15827011964823515 0.10669502771970048 -0.085720718391877213 -0.12370766668876997 -0.10532151858617946 -0.15275780651254117 -0.064069639616916682 -0.10466751933044581 0.12062016707348164 -0.12848198949280129 -0.097338477885423144 0.079131939954141015 -0.11614851040883123 0.09625151898165564 0.04076890560917585 -0.10928324871858951 0.11089380029476639 -0.086077521181125105 0.09001001806053284 0.0037725201666996768
leaf_count=33 31 301 429 32 61 37 241 188 1252 29 28 3926 214 33 81 20 40 142 94 22 148 176 32 1585 75 21 474 68 93 87
internal_value=0 0.581255 -0.0921711 0.758066 0.849142 0.524633 0.2504 -0.327397 -0.893442 0.609344 0.697937 1.03571 -0.0549672 0.74209 -0.00816476 0.788223 0.836331 -0.438999 0.643713 0.874979 -0.269214 0.000755622 0.51343 0.913257 -0.500657 0.99218 0.727307 -0.126286 0.315905 0.915275
internal_count=9993 8535 1584 6951 6020 2033 931 1262 1458 690 1761 3987 833 1733 206 1700 1667 272 125 1647 645 431 208 1625 223 322 661 100 130 561
shrinkage=0.1


Tree=12
num_leaves=31
num_cat=0
split_feature=643 613 655 1670 558 772 182 505 571 609 655 2100 32 72 619 372 446 362 617 215 324 374 557 515 640 593 800 432 633 442
split_gain=358.533 149.656 65.8182 47.3991 54.5786 48.9147 34.9413 34.7195 36.5543 33.8635 31.7154 28.0825 27.574 24.638 24.2094 23.6258 23.5459 22.7334 22.3062 20.7564 20.5424 17.9869 17.0319 17.0667 16.9463 16.9286 16.528 16.5017 16.471 15.0061
threshold=202375168.00000003 4.5000000000000009 17605.000000000004 1.0000000180025095e-35 0.002419041004031897 -43007.999999999993 0.0017722136108204725 0.00093656266108155261 0.0003488411166472361 0.0015941021847538652 1.0000000180025095e-35 -1.0000000180025095e-35 0.0054253388661891231 0.0037775769596919422 2.5000000000000004 6.6271295509068309e-05 0.0020209336653351788 0.00012274579057702797 251904.00000000003 0.0010335711413063111 1.9243455426476434e-05 1.664152659941465e-05 0.0015742795658297839 0.042511893436312682 8450.0000000000018 0.042737688869237907 -110439.99999999999 0.013835112098604442 782.50000000000011 0.0009473851532675327
decision_type=2 2 2 2 2 2 2 2 2 2 2 2 2 2 2 2 2 2 2 2 2 2 2 2 2 2 2 2 2 2
left_child=1 3 25 4 7 29 -4 8 28 -2 21 13 17 16 24 18 -6 -10 -8 -14 -21 26 23 -13 -11 -3 -7 -12 -1 -5
right_child=9 2 6 5 11 10 15 -9 12 14 27 22 19 -15 -16 -17 -18 -19 -20 20 -22 -23 -24 -25 -26 -27 -28 -29 -30 -31
leaf_value=0.10240938236770121 -0.10777628645230022 0.11261690411700451 -0.087852916454407695 0.10545077155867175 0.07282040186406824 -0.03624515620886469 -0.035128068692689939 0.093001547431327658 0.076127758447389712 -0.12538322420417095 0.12296338845831079 0.077044443745558772 -0.10194937865187105 -0.22710842493180614 -0.087439402736633642 -0.034762350358778171 -0.16348922919300882 -0.083272271348400498 0.08759731576568007 0.11579978538816978 -0.11019078982304401 -0.084121789682314971 0.1077230961812867 -0.057235243784109421 0.098030078985923766 -0.096629486882782265 0.14844613894203229 -0.087855837941552231 -0.08999913197523747 -0.035819640339242231
leaf_count=284 1183 301 429 367 171 79 108 532 212 27 116 575 210 22 134 516 23 60 209 59 33 265 3763 54 114 21 39 22 22 43
internal_value=0 0.551509 -0.085904 0.721945 0.811385 0.23438 -0.304211 0.401532 0.127805 -0.86333 -0.215713 0.956375 -0.199415 0.127838 -0.096258 -0.0508222 0.394036 0.365934 0.426979 -0.65075 0.285979 -0.527961 1.00633 0.630889 0.595456 0.951469 0.227161 0.807806 0.834337 0.879407
internal_count=9993 8535 1584 6951 6020 931 1262 1412 880 1458 521 4608 574 216 275 833 194 272 317 302 92 383 4392 629 141 322 118 138 306 410
shrinkage=0.1


Tree=13
num_leaves=31
num_cat=0
split_feature=643 613 655 1670 239 514 36 513 178 1165 104 604 115 515 711 376 2100 750 337 617 613 583 614 633 105 1761 633 1503 548 363
split_gain=309.011 130.467 47.2044 42.0112 51.3929 42.0549 34.7801 31.2869 32.5583 30.2356 29.4021 28.9576 30.0474 27.7941 27.0653 24.6039 23.2904 22.8285 19.6299 22.9696 21.3202 21.0599 19.2704 18.7057 17.5794 15.8308 24.6591 15.5536 14.8198 14.4518
threshold=202375168.00000003 2.5000000000000004 17605.000000000004 1.0000000180025095e-35 0.000672843452775851 21321.500000000004 0.0017133875517174604 12.627056598663332 0.00061828066827729355 -1.0000000180025095e-35 0.0055848553311079749 0.0074196415953338155 0.0050887553952634343 0.020038254559040073 110336.00000000001 0.00067533552646636974 -1.0000000180025095e-35 -1.4745636582374571 0.00027928409690503036 309248.00000000006 14.500000000000002 0.012861852068454029 1.5000000000000002 8232.0000000000018 0.010600799694657327 -1.0000000180025095e-35 262.50000000000006 -1.0000000180025095e-35 0.028521860018372539 0.00032842985820025211
decision_type=2 2 2 2 2 2 2 2 2 2 2 2 2 2 2 2 2 2 2 2 2 2 2 2 2 2 2 2 2 2
left_child=1 3 9 4 6 15 23 8 -2 -3 -10 -4 14 24 18 27 17 -6 19 20 21 -13 25 -1 28 26 -18 -5 -8 -16
right_child=7 2 11 5 16 -7 13 -9 10 -11 -12 12 -14 -15 29 -17 22 -19 -20 -21 -22 -23 -24 -25 -26 -27 -28 -29 -30 -31
leaf_value=0.088571602010373202 -0.10171493674969799 -0.10038815305564031 -0.095837135421883587 -0.094048743766647777 0.076808653964694246 -0.061101509057165063 0.076059370953624347 -0.10805707680270908 -0.049976974626717477 0.09859449428085347 0.15423942257080231 -0.060715155109147795 -0.08888934862862681 -0.069186226773972806 -0.080699149218788874 -0.13560445389056489 0.082771877097471927 -0.075604796729025842 -0.11307608708578845 0.093728054586030146 -0.067688830186019677 0.10477135299104016 -0.090621613979179227 -0.08123939016732698 -0.13577161549882089 0.10095957850134939 -0.19720712107950472 0.074633534729607764 -0.12345962657455416 0.11703562751212497
leaf_count=565 179 46 264 29 160 222 268 1115 77 383 87 57 213 217 193 29 72 80 53 274 123 123 29 34 25 4387 20 629 20 20
internal_value=0 0.522661 -0.0445329 0.697734 0.786162 0.224519 0.32657 -0.83293 -0.177772 0.714438 0.555523 -0.245234 -0.0795507 -0.0993061 0.107127 0.542943 0.918356 0.197496 0.342538 0.452267 0.033191 0.528455 0.967538 0.758767 0.393526 0.984261 -0.040884 0.656146 0.586719 -0.604312
internal_count=9993 8535 1749 6786 5877 909 1129 1458 343 429 164 1320 1056 530 843 687 4748 240 630 577 303 180 4508 599 313 4479 92 658 288 213
shrinkage=0.1


Tree=14
num_leaves=31
num_cat=0
split_feature=643 613 655 502 2100 195 407 648 633 1391 609 182 369 507 405 571 619 372 179 604 255 88 637 515 511 557 359 614 593 809
split_gain=266.74 113.696 48.935 39.9797 47.0222 41.0333 55.2324 37.5175 32.9477 30.8651 28.6109 26.5051 23.3888 21.7158 20.7106 20.6775 19.4416 18.9816 18.7785 18.5694 18.1874 17.9282 17.6317 24.2897 16.91 16.4633 16.2108 15.3895 15.0846 14.9337
threshold=202375168.00000003 4.5000000000000009 17605.000000000004 9.8237964266445501e-05 -1.0000000180025095e-35 0.001544922299217433 0.0019660991383716468 1.0000000180025095e-35 293.00000000000006 -1.0000000180025095e-35 0.0015941021847538652 0.0017722136108204725 1.2591053291544087e-05 0.055274404585361488 0.00082767097046598803 0.0081275114789605158 5.5000000000000009 6.9699360665254071e-06 0.00064327189465984713 0.0060618878342211255 0.0065287530887871989 0.0019288522307761016 810240.00000000012 0.017921308986842636 0.003144812886603177 0.0029734096024185423 2.7521869924385104e-05 1.5000000000000002 0.042737688869237907 -28436.999999999996
decision_type=2 2 2 2 2 2 2 2 2 2 2 2 2 2 2 2 2 2 2 2 2 2 2 2 2 2 2 2 2 2
left_child=1 3 28 5 7 8 19 21 -1 15 -2 -4 -9 14 -14 -6 24 -13 25 -7 -19 -5 27 -24 -12 -8 -22 -11 -3 -16
right_child=10 2 11 4 9 6 18 12 -10 22 16 17 13 -15 29 -17 -18 20 -20 -21 26 -23 23 -25 -26 -27 -28 -29 -30 -31
leaf_value=0.082221279594166211 -0.10237730685599661 0.1063624899819841 -0.078918516212288112 0.1206590946907897 0.070214395208824401 -0.062011912987112179 -0.057480584577700972 0.089174535191093127 -0.10143911892164655 0.10240658105443423 -0.043129132656860712 0.060917650380684953 0.11892808932813795 -0.12765444825504493 0.15825108225621734 -0.081926500006353362 -0.12111962390079657 -0.099288135283901777 -0.14645238967624857 0.10012892279956362 0.058943252176644909 -0.10604128526842919 0.08031838639488556 -0.13062300711788424 0.1072077241088138 0.11254889274496863 -0.029294199555764733 -0.066359483392711027 -0.092905260041781304 -0.060226789431267261
leaf_count=884 1183 301 429 21 116 47 215 475 52 4020 100 188 106 50 21 91 80 140 110 269 142 126 131 42 95 42 363 29 21 104
internal_value=0 0.495185 -0.0756481 0.654148 0.774289 0.314601 -0.12097 0.278284 0.682391 0.905247 -0.807225 -0.263681 0.521064 0.00465179 0.336636 0.00911728 -0.0724673 -0.0424321 -0.689097 0.708083 -0.224015 -0.743705 0.965387 0.157 0.344638 -0.341061 -0.0354735 1.00603 0.877918 -0.262394
internal_count=9993 8535 1584 6951 5332 1619 683 903 936 4429 1458 1262 756 281 231 207 275 833 367 316 645 147 4222 173 195 257 505 4049 322 125
shrinkage=0.1


Tree=15
num_leaves=31
num_cat=0
split_feature=643 613 655 55 2100 648 650 138 646 513 2072 104 78 171 2185 361 399 371 617 145 570 588 1200 244 656 213 405 619 324 1541
split_gain=230.061 99.0763 42.0978 38.8389 37.8046 40.509 33.5136 33.5065 32.4639 27.3553 26.9899 26.902 24.4788 22.6575 20.7062 20.1453 19.1461 18.9823 22.5704 18.1107 20.6161 21.5195 17.7381 17.1878 16.7224 15.8466 21.7368 15.7795 15.5732 14.6308
threshold=202375168.00000003 4.5000000000000009 34399.000000000007 0.00096353943808935593 -1.0000000180025095e-35 1.0000000180025095e-35 8.0000000000000018 0.0013554829056374731 2.0000000000000004 12.627056598663332 -1.0000000180025095e-35 0.0054014704655855903 0.0033875395311042671 0.00064077501883730303 -1.0000000180025095e-35 5.3115320497454385e-06 0.0007650362967979164 9.3595240286958886e-06 3160064.0000000005 0.00056034591398201894 0.003742970991879702 0.027606206946074966 1.0000000180025095e-35 0.0037323329597711567 19264.000000000004 0.0035997963277623062 0.001414741622284055 3.5000000000000004 8.4609786426881342e-05 1.5000000000000002
decision_type=2 2 2 2 2 2 2 2 2 2 2 2 2 2 2 2 2 2 2 2 2 2 2 2 2 2 2 2 2 2
left_child=1 3 -3 7 5 -5 8 19 23 11 -10 -2 -4 -13 -12 -7 17 24 -19 -1 21 -21 27 -6 -14 26 -17 29 -18 -16
right_child=9 2 12 4 6 15 -8 -9 10 -11 14 13 16 -15 22 25 28 18 -20 20 -22 -23 -24 -25 -26 -27 -28 -29 -30 -31
leaf_value=0.071223778786192668 -0.077268599953512734 0.083112052546699469 -0.056256029465309262 -0.086770158995354965 0.051625212154650144 0.076945992432401814 -0.16101214177616555 -0.069320240903133074 -0.12554466799809624 -0.10336611551409548 -0.079835759280522653 -0.070078153499549239 -0.10497831502099325 0.15278344384407228 0.097981761063914777 0.10789913154938365 0.12188082521639096 -0.074052523610460927 0.15301167281700462 0.023645398603039811 0.047191824398722916 -0.19800742533096541 -0.09736234635358379 -0.101043986979023 0.081811652306546981 -0.13559980816270148 -0.076852493229606883 -0.073880221160932458 -0.10825650013976217 -0.083995383241213403
leaf_count=503 204 328 688 136 103 568 31 196 29 1115 32 55 28 84 4734 83 107 243 22 52 172 48 24 80 148 40 59 35 20 26
internal_value=0 0.46953 -0.0701072 0.623228 0.714444 0.250264 0.819491 0.165261 0.841308 -0.778857 0.892114 -0.141471 -0.246508 0.744514 0.91317 0.503514 0.103229 -0.12856 -0.517052 0.418011 -0.0979452 -0.932964 0.933638 -0.178434 0.473336 -0.145846 0.240498 0.949561 0.88896 0.965696
internal_count=9993 8535 1584 6951 5980 886 5094 971 5063 1458 4880 343 1256 139 4851 750 568 441 265 775 272 100 4819 183 176 182 142 4795 127 4760
shrinkage=0.1


Tree=16
num_leaves=31
num_cat=0
split_feature=643 613 618 504 1670 21 772 515 513 589 178 1165 655 52 171 593 232 104 578 772 513 53 711 2185 316 657 627 558 133 462
split_gain=198.395 86.2905 37.3138 35.6041 40.0096 36.529 29.5298 25.2544 25.0913 24.6191 24.2378 24.0712 34.4861 25.2718 23.2266 23.7409 22.113 21.5142 20.5877 17.8946 17.7727 17.3604 17.3404 17.2239 16.313 16.2716 16.6774 14.8386 14.1888 13.4924
threshold=202375168.00000003 2.5000000000000004 1.0000000180025095e-35 8.3459592133294805e-05 1.0000000180025095e-35 0.0020626563346013431 -43007.999999999993 0.013788539916276933 12.627056598663332 0.0014696039725095036 0.00061828066827729355 -1.0000000180025095e-35 38656.000000000007 0.0039424863643944272 0.0035236583789810543 0.038024002686142928 0.0042116264812648305 0.0055848553311079749 0.001587933977134526 -186367.99999999997 15.294146060943605 0.0035670063225552444 18176.000000000004 -1.0000000180025095e-35 4.3952490159426823e-05 82768.000000000015 292.00000000000006 0.003087196266278625 0.0043609903659671554 0.0021928948117420082
decision_type=2 2 2 2 2 2 2 2 2 2 2 2 2 2 2 2 2 2 2 2 2 2 2 2 2 2 2 2 2 2
left_child=1 3 11 5 19 23 -6 9 10 -7 -2 -3 -13 16 15 21 -14 -12 -9 -5 22 -8 -4 -1 -25 -21 -27 -26 -24 -20
right_child=8 2 20 4 6 7 14 18 -10 -11 17 12 13 -15 -16 -17 -18 -19 29 25 -22 -23 28 24 27 26 -28 -29 -30 -31
